/*
 * Copyright (c) 2025 EdgeImpulse Inc.
 *
 * Generated by Edge Impulse and licensed under the applicable Edge Impulse
 * Terms of Service. Community and Professional Terms of Service
 * (https://edgeimpulse.com/legal/terms-of-service) or Enterprise Terms of
 * Service (https://edgeimpulse.com/legal/enterprise-terms-of-service),
 * according to your product plan subscription (the “License”).
 *
 * This software, documentation and other associated files (collectively referred
 * to as the “Software”) is a single SDK variation generated by the Edge Impulse
 * platform and requires an active paid Edge Impulse subscription to use this
 * Software for any purpose.
 *
 * You may NOT use this Software unless you have an active Edge Impulse subscription
 * that meets the eligibility requirements for the applicable License, subject to
 * your full and continued compliance with the terms and conditions of the License,
 * including without limitation any usage restrictions under the applicable License.
 *
 * If you do not have an active Edge Impulse product plan subscription, or if use
 * of this Software exceeds the usage limitations of your Edge Impulse product plan
 * subscription, you are not permitted to use this Software and must immediately
 * delete and erase all copies of this Software within your control or possession.
 * Edge Impulse reserves all rights and remedies available to enforce its rights.
 *
 * Unless required by applicable law or agreed to in writing, the Software is
 * distributed on an "AS IS" BASIS, WITHOUT WARRANTIES OR CONDITIONS OF ANY KIND,
 * either express or implied. See the License for the specific language governing
 * permissions, disclaimers and limitations under the License.
 */
// Generated on: 17.06.2025 10:37:03

#include <stdio.h>
#include <stdlib.h>
#include "edge-impulse-sdk/tensorflow/lite/c/builtin_op_data.h"
#include "edge-impulse-sdk/tensorflow/lite/c/common.h"
#include "edge-impulse-sdk/tensorflow/lite/micro/micro_mutable_op_resolver.h"
#include "edge-impulse-sdk/porting/ei_classifier_porting.h"

#if EI_CLASSIFIER_PRINT_STATE
#if defined(__cplusplus) && EI_C_LINKAGE == 1
extern "C" {
    extern void ei_printf(const char *format, ...);
}
#else
extern void ei_printf(const char *format, ...);
#endif
#endif

#define STRINGIZE(x) #x
#define STRINGIZE_VALUE_OF(x) STRINGIZE(x)

#if defined (__GNUC__)  /* GNU compiler */
#define ALIGN(X) __attribute__((aligned(X)))
#define DEFINE_SECTION(x) __attribute__((section(x)))
#elif defined (_MSC_VER)
#define ALIGN(X) __declspec(align(X))
#elif defined (__TASKING__) /* TASKING Compiler */
#define ALIGN(X) __align(X)
#define DEFINE_SECTION(x) __attribute__((section(x)))
#elif defined (__ARMCC_VERSION) /* Arm Compiler */
#define ALIGN(X) __ALIGNED(x)
#define DEFINE_SECTION(x) __attribute__((section(x)))
#elif defined (__ICCARM__) /* IAR Compiler */
#define ALIGN(x) __attribute__((aligned(x)))
#define DEFINE_SECTION(x) __attribute__((section(x)))
#elif defined (__clang__) /* LLVM/Clang Compiler */
#define ALIGN(X) __ALIGNED(x)
#define DEFINE_SECTION(x) __attribute__((section(x)))
#endif

#if defined(EI_MODEL_SECTION) && (defined(__GNUC__) || defined(__clang__))
#define MODEL_SECTION(X) __attribute__((section(STRINGIZE_VALUE_OF(X))))
#else
#define MODEL_SECTION(X)
#endif

#ifndef EI_MAX_SCRATCH_BUFFER_COUNT
#ifndef CONFIG_IDF_TARGET_ESP32S3
#define EI_MAX_SCRATCH_BUFFER_COUNT 4
#else
#define EI_MAX_SCRATCH_BUFFER_COUNT 8
#endif // CONFIG_IDF_TARGET_ESP32S3
#endif // EI_MAX_SCRATCH_BUFFER_COUNT

#ifndef EI_MAX_OVERFLOW_BUFFER_COUNT
#define EI_MAX_OVERFLOW_BUFFER_COUNT 10
#endif // EI_MAX_OVERFLOW_BUFFER_COUNT

using namespace tflite;
using namespace tflite::ops;
using namespace tflite::ops::micro;

namespace {

#if defined(EI_CLASSIFIER_ALLOCATION_STATIC_HIMAX) || defined(EI_CLASSIFIER_ALLOCATION_STATIC_HIMAX_GNU)
constexpr int kTensorArenaSize = 186832;
#else
constexpr int kTensorArenaSize = 185808;
#endif

#if defined(EI_CLASSIFIER_ALLOCATION_STATIC)
#if defined (EI_TENSOR_ARENA_LOCATION)
uint8_t tensor_arena[kTensorArenaSize] ALIGN(16) DEFINE_SECTION(STRINGIZE_VALUE_OF(EI_TENSOR_ARENA_LOCATION));
#else
uint8_t tensor_arena[kTensorArenaSize] ALIGN(16);
#endif
#elif defined(EI_CLASSIFIER_ALLOCATION_STATIC_HIMAX)
#pragma Bss(".tensor_arena")
uint8_t tensor_arena[kTensorArenaSize] ALIGN(16);
#pragma Bss()
#elif defined(EI_CLASSIFIER_ALLOCATION_STATIC_HIMAX_GNU)
uint8_t tensor_arena[kTensorArenaSize] ALIGN(16) __attribute__((section(".tensor_arena")));
#else
#define EI_CLASSIFIER_ALLOCATION_HEAP 1
uint8_t* tensor_arena = NULL;
#endif

static uint8_t* tensor_boundary;
static uint8_t* current_location;

template <int SZ, class T> struct TfArray {
  int sz; T elem[SZ];
};

enum used_operators_e {
  OP_CONV_2D, OP_MAX_POOL_2D, OP_RESHAPE, OP_FULLY_CONNECTED, OP_SOFTMAX,  OP_LAST
};

struct TensorInfo_t { // subset of TfLiteTensor used for initialization from constant memory
  TfLiteAllocationType allocation_type;
  TfLiteType type;
  void* data;
  TfLiteIntArray* dims;
  size_t bytes;
  TfLiteQuantization quantization;
};

typedef struct {
  TfLiteTensor tensor;
  int16_t index;
} TfLiteTensorWithIndex;

typedef struct {
  TfLiteEvalTensor tensor;
  int16_t index;
} TfLiteEvalTensorWithIndex;

TfLiteContext ctx{};
static const int MAX_TFL_TENSOR_COUNT = 4;
static TfLiteTensorWithIndex tflTensors[MAX_TFL_TENSOR_COUNT];
static const int MAX_TFL_EVAL_COUNT = 4;
static TfLiteEvalTensorWithIndex tflEvalTensors[MAX_TFL_EVAL_COUNT];
TfLiteRegistration registrations[OP_LAST];

namespace g0 {
const TfArray<4, int> tensor_dimension0 = { 4, { 1,96,96,3 } };
const TfArray<1, float> quant0_scale = { 1, { 0.0039215688593685627, } };
const TfArray<1, int> quant0_zero = { 1, { -128 } };
const TfLiteAffineQuantization quant0 = { (TfLiteFloatArray*)&quant0_scale, (TfLiteIntArray*)&quant0_zero, 0 };
const MODEL_SECTION(EI_MODEL_SECTION) ALIGN(8) int32_t tensor_data1[2] = { -1, 18432, };
const TfArray<1, int> tensor_dimension1 = { 1, { 2 } };
const MODEL_SECTION(EI_MODEL_SECTION) ALIGN(8) int32_t tensor_data2[2] = { 311, -311, };
const TfArray<1, float> quant2_scale = { 1, { 7.349026418523863e-07, } };
const TfArray<1, int> quant2_zero = { 1, { 0 } };
const TfLiteAffineQuantization quant2 = { (TfLiteFloatArray*)&quant2_scale, (TfLiteIntArray*)&quant2_zero, 0 };
const MODEL_SECTION(EI_MODEL_SECTION) ALIGN(16) int8_t tensor_data3[2*18432] = { 
  47, -71, 37, 66, 82, -60, -42, -86, 2, 38, -77, -69, -91, 73, -37, 24, 72, 34, 39, -71, 27, 21, 15, 32, -60, -9, 63, -2, 5, 33, -73, 58, -13, 62, 20, -33, -68, -91, 5, 39, 7, 41, -82, 63, -59, 23, -21, -70, -7, -72, 34, -90, 62, -92, 5, -1, -92, -103, 43, 3, -51, 4, -31, 30, -13, -42, 59, 58, -58, 67, -57, 56, -2, -33, 5, -37, 1, -22, -19, 39, -3, 9, -76, -22, 26, 13, -47, 47, 38, -50, 3, -4, 51, -53, -64, 21, 37, 69, 54, -26, 18, 18, -77, 6, 14, 18, -20, 19, -71, -47, 42, -63, -72, 87, -53, 73, 55, 57, -54, -62, -11, -34, 12, 83, 80, -23, 74, -56, 44, 58, -46, 56, -62, 12, -3, -16, -62, 43, 24, -8, 75, 65, -18, 4, 5, -48, -17, 48, 8, 86, -23, -4, -48, -11, 18, -32, 32, 82, -45, 10, -66, 13, 22, -33, -18, -21, 23, 73, 35, -59, -23, -23, 79, 59, 38, -41, 30, -46, 78, 44, 63, 56, 50, 36, 26, -75, -50, -73, 5, 71, -65, -65, 66, 28, 49, -64, 11, 6, 76, 54, -11, -6, 54, -89, 72, -46, -50, 64, -68, 15, -12, 83, -65, 14, 12, 13, -18, -25, 35, -41, 66, 28, 70, 14, 17, 77, 83, -34, -16, -47, -4, 8, 59, 9, 82, -73, -8, 66, -21, 76, 89, 53, 51, -66, 46, 18, -7, -41, -24, 23, 5, -54, 10, 50, 29, -18, -9, 60, 55, -17, -63, 85, -70, -12, -57, 40, -45, 81, 50, 53, 77, -52, 75, -36, 47, -24, 11, -47, 10, 8, -10, -85, -58, 58, 23, 48, 48, 83, 72, 82, -25, -23, 36, -23, 58, 89, -55, 15, 67, 66, -21, 38, -51, 58, 9, 45, 75, -6, 2, 58, -56, -42, -14, -49, -75, -38, 80, -6, 80, -19, -30, -72, 41, -16, 80, 35, 52, -1, -21, 14, 2, 86, 32, 28, -3, 79, -73, -16, 49, 10, 55, 73, 55, -77, -11, 37, -43, -42, 67, 66, 11, -25, 99, 51, -2, -43, -57, -77, -65, -47, -3, -1, 32, -53, -81, 93, 83, 29, -20, -45, 19, 62, -17, 80, -47, -45, 44, 82, 83, 1, -3, -22, -31, -84, 14, -41, -47, 54, 21, -32, -61, 64, -76, 3, -54, 51, -79, -19, -3, 51, -59, 64, 57, -35, -66, 12, -1, 34, -50, -2, 89, 25, 19, -8, -23, -42, -54, 61, -23, -84, -57, -46, 59, -65, 37, 21, 46, -33, 14, -72, -18, -68, -83, -35, -31, 45, -53, -43, -73, -37, -26, 10, -30, -12, 13, -21, -68, -33, 38, -52, 10, -56, -82, 56, -83, 67, -59, 40, 56, 87, -46, -87, -72, -67, -47, 19, 28, -74, -37, 78, -3, -49, -49, 44, 39, -54, -78, -12, 57, 80, 70, -1, 71, 70, -9, 90, 64, -9, 50, -42, -31, 22, -5, 21, 91, 19, -33, -32, 70, 48, -63, 14, -16, 17, -81, 60, -53, -65, -9, -72, -66, 57, -1, 76, -37, 81, 60, -49, 4, -20, 46, 64, 75, 69, -77, 53, 39, 5, -36, 51, 38, -66, 79, 42, 97, 36, 84, -6, 90, -8, -24, -28, 1, 0, 58, -27, 12, 45, 16, 1, -19, 78, -32, 50, -24, 62, 86, 83, 79, -4, -30, -8, 5, -13, 23, 31, 10, -44, 8, 21, -77, -5, 46, -44, -22, 35, -49, -65, 72, 30, -21, 1, -58, -15, -36, -26, -16, -65, -22, -22, -21, -19, 12, -48, -5, 85, -38, -23, 22, -26, 57, -67, -29, -60, -52, -71, 7, 38, -52, -44, -45, -27, -4, -16, 50, -88, -35, 62, 29, -68, 41, 41, 80, -16, 77, 2, -70, 4, 3, 26, -35, 20, -48, 106, -14, 73, -82, -70, 62, 70, 57, 2, -49, -52, -7, 76, -29, -45, -23, 50, 47, -102, 79, -35, 59, 70, -30, -8, -52, 85, 33, -33, -61, -46, -23, -6, 2, 26, -28, -28, -20, -36, -56, -72, 46, -20, 82, 9, 61, -10, -34, 27, -44, -28, -70, 30, -33, 0, -84, -72, -36, -2, -41, -11, 72, -58, 68, 46, 18, 13, 77, 90, 9, 56, 57, -16, 61, -16, -52, -25, 54, 65, 39, 12, 14, -54, 78, 62, 56, 50, 35, 48, -57, -45, 45, -63, -23, 66, -40, -25, 46, -6, -75, -22, 18, 45, -53, -7, -68, 2, -14, -91, 79, -7, -71, 5, -36, -91, -76, -56, 57, -83, -6, 63, -55, -64, -71, -68, -74, 47, -4, 21, 17, -30, -2, 59, 17, -16, -88, -33, 69, 19, 75, -29, -23, 32, 57, -1, -78, 59, -28, -43, 45, 7, 38, -72, 45, -87, -9, -7, 76, -57, 12, 70, -93, -23, -81, 38, 77, -78, -17, 33, 2, 47, -61, 15, -18, -80, -56, -93, -50, 24, 32, 32, 45, 41, -16, 11, 22, 11, -83, -96, -60, -30, -61, -87, -93, 58, -35, -50, 78, -80, -45, -33, -45, -19, 2, -12, -51, 76, -101, -69, 55, -72, 70, -45, -7, 12, 25, 55, -91, 65, 20, -43, 41, -28, -50, 34, 58, -21, -6, -71, -44, -54, 3, 75, 28, -94, 0, -43, 50, 21, -20, 55, -32, -37, 24, 18, -53, 18, -82, -65, 72, 94, 43, 28, -38, 37, 16, 10, 41, 36, 7, -9, -56, 21, 45, -24, -62, -66, 65, 24, 57, -16, 4, 72, -79, -28, 29, -18, 37, 7, 85, -48, -7, -5, 81, -38, 23, -64, -46, 61, -43, -80, 18, -65, -3, 25, 107, 53, -2, -42, -59, -70, -65, 5, 60, -66, 55, -56, -27, 20, 53, -10, 14, 56, 49, 58, -75, -17, -15, -9, 88, 10, 20, -61, 33, 62, 4, 52, -33, -56, -65, -60, 76, -57, 62, -1, -61, -84, -49, -53, 46, -72, 77, -29, 49, -44, -31, 76, -38, -58, -47, -34, 4, 79, -18, -45, 41, 58, 25, 5, 7, -2, -9, -6, -26, -23, 76, 23, -6, 14, -49, -38, -13, 23, -78, 84, 59, -61, 70, 0, 51, -71, 26, 27, -15, -11, 50, 75, -70, -72, -13, 62, 17, -42, 43, -63, -55, -7, 59, 5, -59, -62, -31, 32, 70, -61, -31, -37, -78, -71, 32, -23, -22, -30, -59, 67, 3, 21, -21, -25, -54, -43, -6, -36, 57, -61, 19, 82, 47, 16, 7, 34, -14, -21, -31, 2, 37, 21, 78, 8, -22, -94, -24, -53, -78, -10, -3, -21, -66, 40, -27, -79, -38, 0, 25, 49, 66, -59, 31, 11, 67, -11, -26, -63, -53, 75, 6, 54, -56, 61, 14, -12, -32, -57, -1, 61, 57, -88, 34, -1, 17, -9, -8, 67, 59, 8, 0, 78, -58, -69, -86, -89, -37, 22, 22, -58, -72, -48, 59, -32, 43, -57, -3, 59, -64, -23, 53, -61, -2, 14, 32, -75, 56, -19, -20, -92, -52, 24, 42, 79, -35, 67, -40, -36, 59, -97, -70, -21, 76, 8, 38, 20, -1, 75, -59, -81, 49, -4, -50, 22, -26, -16, -39, 43, 72, -74, 21, 17, -5, 5, 4, -60, 80, -30, 73, 36, 1, 48, 48, 13, 1, 21, -37, -41, -4, 19, -39, -48, 20, -35, 59, 10, -51, -14, -33, -48, -32, -53, -31, -42, 64, -29, -79, 36, -8, -15, -9, -44, -51, -40, -25, 13, 84, -79, 65, -43, -45, -81, 15, 24, -49, 4, 55, -5, 69, 77, 59, 79, 29, -53, 3, -50, -68, -5, -36, 61, 18, -39, -75, 21, 20, -32, -26, 13, 13, 28, -40, -35, -19, 77, 50, 71, 70, 71, -35, 75, 46, 91, 55, 26, 67, -43, 43, -25, -12, 40, -41, -51, -14, 28, 8, -53, 22, 31, 40, -64, 102, 57, -29, 80, 78, -86, -46, 50, 98, -33, 74, -79, -22, -4, -49, -55, -79, -11, 59, 85, -23, -46, -79, -56, 16, 8, 68, 10, 66, 16, -52, -70, 0, -59, 35, -15, 22, -23, -7, -48, -95, 68, 67, 62, -38, -20, 3, 76, 54, 0, 22, -30, -37, -71, -76, 38, -36, 43, -11, -44, 22, 14, -49, 7, -71, -75, 43, -71, 15, 2, -18, -56, 65, 83, -64, 42, 94, 31, -16, -30, -55, 18, 14, -41, 14, -63, -64, -16, 65, 23, -11, -21, 72, -58, -39, 86, 11, 66, -25, 37, -3, -50, 33, 36, 33, -34, -17, -48, 33, -16, 15, -49, 56, 55, 98, -10, -81, 14, -27, 15, -77, 53, 64, -53, -18, 58, 56, -79, 26, -6, 0, -73, -48, 48, 4, -41, -43, -70, 34, -23, -30, 26, 81, -5, -25, 61, -74, 28, -77, 19, 50, 74, 17, -70, 82, 35, 63, 64, -69, -31, 47, 59, -18, 27, 45, 0, 57, -33, 90, -67, 65, 61, 31, 17, -8, -33, 56, 93, -5, 85, 11, 97, -82, -81, -10, -84, -46, -24, -58, 59, -69, 62, -99, 69, -85, 44, 34, 14, 69, -64, 31, -51, -63, 13, -51, -71, -6, 75, 10, -11, -78, -11, 62, -35, -52, 42, 39, 2, 20, 26, 41, 11, 70, 0, 9, -17, -94, -92, -66, -44, 14, 25, 26, -86, -31, -86, 36, -78, 25, -37, -1, -76, 17, 48, 11, -67, -68, -70, 106, -76, -66, -55, -71, 28, -14, 0, -31, -63, 51, -70, 17, -21, 70, -52, -81, -46, 43, -79, 29, -47, 71, -59, -81, -14, -82, -23, -44, 20, 48, 16, -1, -66, 45, -48, -5, -34, -78, -47, 45, -112, -93, 15, -67, -43, -69, -9, -25, -59, -61, 40, -79, 0, -103, -50, -19, -76, -40, 11, -1, -68, 34, 56, -18, 59, 69, 71, -45, 63, 42, -33, -71, 20, 12, -24, -28, 34, 31, 5, -77, 83, 46, 31, -12, -38, -100, -29, 52, 40, -2, -77, -75, 8, 14, -69, 79, -70, -52, -63, 79, -60, 77, 61, 52, -10, -23, -78, 50, 92, 4, 8, 25, -59, 66, 41, 44, -65, 19, -2, -70, -51, -60, -12, 78, 49, -66, 51, 48, -28, 77, -39, -14, -21, -71, -27, -65, 14, -10, -22, 43, -49, -77, -40, -41, -31, -37, 66, -63, -76, 96, -65, -26, -40, -10, 56, -3, 71, 70, -13, -1, -3, -78, 46, 42, 75, -62, 83, 12, 55, 51, -43, 67, -6, -36, 58, 32, 42, 34, 64, -22, -71, 0, 48, 30, -41, -41, 84, 56, -6, -20, -54, 47, -31, -9, -76, 44, 13, 75, -25, -48, -49, -10, -13, 77, -36, -53, -38, 49, 57, 12, 1, 33, 44, -23, 78, 40, 51, -72, 20, -65, 52, -53, 29, 4, 5, -57, 4, -6, -68, 82, -31, 22, 100, 71, 50, 43, 28, 83, 73, 93, 52, -64, -61, 40, -61, -59, 53, -15, 19, 61, -32, 29, 8, -76, 9, -57, 74, 39, -28, 5, 81, 46, 4, -35, -44, -19, -33, -17, -8, 47, 15, -29, 92, 24, 21, 66, 11, 72, -58, -41, -25, -59, 30, -67, -15, 61, 73, 0, 6, -25, -53, 10, 39, 21, 38, 32, 54, -33, 64, -53, 13, 91, -2, -59, -54, 78, 20, -58, 12, -23, -62, -36, 49, 43, -15, -51, 55, 51, -15, -92, -18, -22, -9, 44, 52, -18, -57, -10, -21, -48, 39, -21, -70, -71, -19, -9, 95, 53, -2, -22, -89, 31, 68, -68, 96, 4, -21, 69, -64, -74, 32, -113, -23, -36, -9, -69, -26, -84, 78, -71, 7, -70, -29, 67, -35, 28, 25, 65, -70, 66, 74, -32, 1, -6, 83, 37, 16, -49, -57, -10, -50, 16, -80, 83, 59, 6, 29, -25, -10, 32, -57, -1, 8, -42, -37, 32, -49, -57, -68, -2, -52, -48, -70, 80, -12, -74, -58, 44, -19, -44, -66, -12, -78, -15, -5, 24, -27, 64, 49, 60, 7, -40, 61, 24, -81, 71, 53, 7, -5, -62, -52, -2, -18, 31, -53, -68, -30, 11, 0, -36, -23, 20, 74, 79, -19, -73, 69, -58, 49, -17, 61, 26, -41, 39, -81, 16, -41, -77, -7, 40, -41, -10, 45, 68, -37, -28, -47, -8, 6, 14, -55, 56, 72, -55, -8, -80, 4, 9, -67, -80, -56, -2, -10, 27, 93, 39, 28, 33, 45, -73, -42, -65, -69, -3, 49, 88, -17, 45, -50, 65, -49, -8, -67, -76, 71, -25, -10, 75, 13, 15, 66, -24, -81, -23, -31, 33, -8, 0, -8, 72, -75, 24, 105, -9, -38, 34, -26, 33, -16, -5, 73, 29, -9, 9, -81, 23, 85, -46, -29, -71, -26, 14, 24, 68, 85, 83, 41, -24, 74, 49, -27, 36, 41, -53, 30, 61, 98, 91, 67, 27, 79, 82, 29, 18, 5, -44, 85, 35, -30, -20, -50, -66, -40, 50, 71, -10, -2, 60, 94, -29, 58, -13, 30, 5, -70, -40, -11, 64, 68, -21, 61, -22, 28, 58, 2, 56, 51, -66, -26, -3, -36, 24, 55, -57, -44, -42, 69, 85, 11, 14, 63, -68, 29, -60, -19, 58, 35, 83, -48, 26, 86, 9, 40, 23, 3, -67, 4, 71, 84, -44, 81, -10, 48, -38, 73, -75, 34, -9, 25, -88, 48, -35, 60, -19, -88, 11, -8, 5, -8, 45, -36, 63, -38, 3, -29, -38, 66, 82, -4, 1, 48, -23, 70, -20, -53, 16, 9, 45, 73, -61, -39, -52, 65, 83, -54, -67, 10, 47, 11, -39, -10, 25, 1, 60, 40, -30, -59, -9, 60, -49, -50, 46, -41, -62, -43, 53, -34, 61, 109, -59, 9, -60, 98, 32, 54, 57, -4, -5, -20, 52, 3, 44, 42, -32, -64, -80, -65, 69, -27, 43, 11, 22, 79, -50, -94, -43, 2, 49, 21, 39, 82, -22, -45, 75, 42, -33, 91, -14, 99, -49, -25, -15, -25, -53, 1, -29, 72, -63, -30, 56, 18, 87, 21, 52, -47, -18, 7, 71, 2, 77, -13, 36, 102, 56, 26, -20, -67, 67, 0, -45, 39, -71, 7, 33, 41, -97, -35, -67, -35, -60, -61, -20, -46, -14, 48, -65, -85, 35, 50, 116, -79, 29, -48, 51, -56, -65, 68, 6, -36, -55, -65, 44, 60, 70, -30, -63, -56, -29, 29, -50, 21, 59, 58, -23, 1, -39, 47, -8, -27, 54, -24, -111, -91, -7, -105, -38, 3, 49, -103, 58, -45, 25, 79, 4, -35, 54, 1, 38, 36, -65, 43, 56, -61, -61, -47, 2, 63, -53, 29, 57, -13, -14, 78, -69, 63, -58, -65, -42, -20, 53, -117, -72, 74, 62, -63, 72, -54, 19, 57, 69, 56, -2, 51, -4, -87, 65, 54, -21, -45, -13, -10, -22, 83, -4, 78, -6, -59, 77, -33, 88, 76, 26, 8, -38, -41, 24, -67, -71, 34, -73, -2, -45, -19, 31, 77, 3, -44, 74, 48, 15, 67, 24, -77, 63, 81, 31, -38, 12, -9, 13, 42, 48, -73, -73, 48, 36, 3, 98, -12, -21, 76, 83, 33, 46, -22, 28, 25, -46, 26, 4, 26, 15, 77, 73, 89, -55, 67, 49, -75, -62, 83, -17, -47, -39, -61, -46, 56, -10, 18, -6, 74, -9, 40, 74, -57, -69, -56, -47, 52, 73, -3, -45, -29, -39, -77, -28, -4, -39, 19, 40, 32, 61, -19, -65, 94, 37, -27, 58, 3, -60, 65, -55, -83, 80, -16, 45, 15, -38, -67, -49, 11, -76, -89, -67, 17, -15, 35, -12, -38, 44, 41, 30, 28, 46, 53, 15, -44, -26, -71, -26, 6, 29, -32, 67, -84, -75, -60, 74, -45, -8, -27, 24, -40, 16, 8, 47, 58, 4, -18, -80, -53, -7, -12, -66, -46, 98, -5, -22, 41, 60, 0, 67, 80, 13, 25, 89, -34, 19, -71, -25, 77, -33, -29, -33, 85, 65, -8, -15, -29, -52, -78, 37, -64, 21, 26, 3, -50, -85, 19, 37, -35, -53, -28, -24, -67, 27, -35, -88, -15, -45, 12, -52, -46, 90, 22, -65, 15, 27, 7, -47, -3, -22, 50, -48, -78, 69, 6, -68, -53, 12, -39, -68, 37, 71, -3, -26, -18, 22, -33, 89, 49, 1, 6, -78, -51, -87, 58, -6, -70, 5, 64, 79, -18, -76, 12, 72, -56, 80, 3, -13, 24, 88, -41, -14, 59, -56, 38, -7, 17, -20, -51, -18, -19, 21, -43, 25, 22, 73, -19, 58, -8, 54, 21, -21, 45, -1, 3, 45, -19, 81, 63, 16, 9, -53, -20, 31, 57, -56, 55, 38, -42, 80, -16, -51, 30, -66, 35, 9, -98, 21, 79, -12, -10, 28, 82, 2, 0, -4, 58, 54, -46, -69, -82, -78, 28, 55, -40, 5, -21, -70, -55, -9, 6, -10, -29, 42, -59, 48, 12, 62, -4, -65, -20, 89, 58, 14, -24, -32, -77, 45, 56, 47, -23, -68, -69, -56, -24, 20, -57, -33, 67, 60, 56, 6, 75, 19, -52, 49, 51, 12, -47, 18, -33, 85, -46, 8, -43, -40, 13, -66, -55, 19, -14, -14, -7, 80, 65, -67, 26, -34, -23, 9, 48, 46, -38, -8, 3, -63, 59, -66, 46, -61, 80, 35, 97, -34, 30, 91, -10, 87, 18, 74, 77, 67, 106, -45, -69, -1, -51, -45, 75, -37, 76, -5, -56, 76, -63, 2, 5, 60, 91, -73, 27, -26, 81, -37, -56, 50, -3, 31, 87, 67, 31, -25, -56, 41, 8, -29, 50, -1, 30, 59, 88, 20, 11, 30, -21, 17, 21, -17, 13, 58, -32, -41, -51, 49, 39, -55, 52, -12, 12, 20, -56, -49, -26, -66, 21, -79, 62, 93, 78, 77, -41, -11, 92, -76, 67, 66, -47, -13, -66, 32, -54, -44, -21, -65, 97, -57, -68, 67, 61, -38, 14, 51, 77, 46, -58, 45, 10, 91, -10, 12, -61, -23, -8, -10, 76, -34, -28, -10, -51, 63, -50, 61, 3, 57, 15, -47, -34, 18, -10, -56, -24, 49, -37, -8, 88, -14, 43, 10, -51, 39, 10, 6, 49, -15, -26, 67, 7, 68, 37, -31, 35, -79, 32, -82, 2, 72, -35, -58, 7, 58, -68, 71, -32, -30, 70, -22, 50, 61, 79, -36, -29, 42, -13, -60, 24, 44, 58, -29, -50, 53, 44, -70, 75, -50, -58, 10, -37, 64, -71, 67, -20, -11, 43, 13, 54, -14, -69, 78, -41, 56, 90, 49, -7, 46, 91, -38, 55, 24, 34, 7, -25, -24, -19, -42, 101, 2, -37, -70, 67, -66, 48, 109, -1, 72, 86, 0, 85, 43, -37, 17, -8, 32, 83, -45, -39, 74, -23, -91, -65, 54, 54, -60, 62, -26, 57, 69, 46, 44, 65, -31, 3, -37, 35, 17, 13, 75, -29, 59, -42, -28, -16, -19, 37, 16, -62, 72, -84, 11, 1, -28, 27, -7, -82, -64, -28, -15, -71, 65, 15, 27, -80, -60, 26, -33, 0, 24, -11, -89, 7, 29, 81, 65, 74, 12, -94, -68, 15, 9, 9, 59, -8, 50, 46, 59, 61, 3, -46, -67, -53, -23, -88, 12, 35, -69, -18, 69, -68, -21, 69, -19, -11, -17, 85, -12, 81, -15, 23, -38, -45, 79, -50, -53, -74, 67, 31, -73, -77, 66, 51, -17, -49, 0, -96, 75, 56, -52, -42, 9, -30, 33, -58, 75, 34, -19, -15, 48, -39, -12, -20, -42, -105, 10, 38, -7, -21, -34, 53, 20, 62, -18, -56, 95, 49, -69, -70, 10, 19, 21, 11, -64, 63, -18, 73, -35, -73, -72, -74, 87, 79, -45, -64, 53, -9, 42, 11, 63, -52, -75, 51, -77, 67, -56, -85, 40, -67, -32, 35, 10, 36, -67, 61, 30, 59, 60, 35, 76, 63, -16, 16, -46, 52, -65, 62, -58, -55, -5, 62, -65, 66, 49, -45, -46, -18, 4, 10, 68, -81, -76, -5, -52, -72, -49, 51, -24, -35, -24, 97, -23, -53, -27, 53, 18, -23, 23, 59, -9, -87, 22, 23, 9, -78, -47, 19, -18, -68, 29, -10, 88, -69, -31, -64, 14, -37, -31, 8, 5, -50, 42, -3, -31, 41, -74, 65, 57, -39, -56, 37, -32, 29, -10, 27, -39, 93, 60, -42, -69, -42, -52, 20, 50, 3, -26, 37, -44, 83, -35, 56, -66, 44, -53, 46, -55, -32, 7, -62, 3, -28, -47, -57, -36, -83, -57, 29, 35, -26, 17, -22, -37, -31, -73, -79, -20, 70, -1, -22, -47, 64, 16, 63, -11, 4, -42, -62, -9, 74, -4, 73, 67, -36, -1, -50, 41, -33, -24, -48, 40, -29, 16, -57, -52, 27, 1, -37, 14, -53, -41, -84, -57, -51, -38, -50, -40, 64, -25, -70, 87, -67, -54, -19, 17, 15, -86, -36, 59, -62, -6, -29, -45, 20, -98, 87, 46, 38, 24, -21, 87, 68, 64, -10, 19, -24, 42, 20, -2, 88, -24, 3, 12, -16, 51, 22, -63, -51, 38, -33, 71, 67, 62, 65, 73, 50, 63, -60, -59, -35, -35, 32, -71, -38, 59, -33, -68, 62, -18, 21, 26, 1, 44, 55, 81, 45, -5, -37, -35, -16, 10, -30, 4, -81, -20, -56, -26, 15, 19, -16, 55, -61, -50, -69, -51, -60, 23, 5, -48, 56, 51, -7, 2, 37, 68, -12, -61, 92, -29, 57, 80, -38, 6, -5, -17, -60, 72, -59, 10, -45, 24, -29, 48, 62, -76, 16, 3, -15, 44, 12, 46, -60, 82, -16, -73, -73, 107, 18, -15, 71, 25, -70, -33, 10, -34, 82, -7, 6, -72, 62, 75, 70, -31, 19, 2, -49, 11, -5, 86, 77, -53, -32, -38, -41, 43, -76, 18, -62, -82, -8, 13, -64, -30, -8, 17, 52, 71, 63, 34, 43, -60, -42, -43, -48, -41, 35, 70, -20, -1, 9, -57, -66, 77, 53, 87, -7, -28, 15, 16, -61, 23, 62, 47, 43, 44, 5, 40, 17, 79, 22, -65, -16, 6, 83, 4, 89, 57, 8, 68, 71, 15, 11, 56, -38, 24, 17, -37, 62, -13, -66, 71, -66, 103, 52, 66, 11, -39, 92, -5, 83, -24, 12, -72, -12, 54, 58, 37, 76, 52, -63, -60, 60, 28, 23, 41, 31, 7, -84, -15, -16, -6, 59, -79, -6, 23, -49, 26, 36, -73, 41, 80, 23, 70, -14, 75, -61, -11, -55, 76, 14, -12, 92, -40, -45, 14, 12, 4, -2, -41, -33, -2, -75, -24, -50, -14, -51, 15, 94, 42, -47, 69, 83, -8, 14, -81, 31, 82, -70, -25, -43, -28, -24, 28, -45, -26, -42, 58, 90, 63, 68, 16, -25, -64, -60, 13, -108, -16, -66, 77, 73, 62, 101, 62, -14, 80, -29, -77, 37, -51, 30, -60, -13, 67, 87, 55, 48, -43, -7, -5, -65, 48, 69, 47, -6, 43, -72, 12, 15, -67, 15, 7, 36, -24, -24, -12, -67, 52, -44, -21, -66, -35, -78, 39, 75, 64, 17, 13, 37, -12, -67, 32, 20, -18, -43, -6, 99, -33, 18, 10, 37, 49, -94, -1, 21, 68, -60, -40, 83, 19, 70, -29, 74, -55, -69, 59, 70, 45, 35, -18, 31, 69, -31, -43, -11, -42, 45, -25, 36, -36, -20, 6, 79, -40, -8, 26, -74, 80, 96, -29, 54, 60, 47, -61, 19, 54, 47, -48, 8, 55, 30, -20, 0, -22, -55, 11, -51, 40, 3, 10, -9, -1, -44, -7, 26, -4, -33, -71, 33, -78, -53, 8, 81, 68, -75, -14, 30, 37, -89, -76, 51, -3, -15, -4, -66, 66, 25, 31, 30, 2, -82, -17, 82, -86, -33, -49, -82, 11, -13, -39, -66, -76, 66, -27, -52, 58, -58, -44, 31, -11, 64, -83, -21, 70, -25, 48, -80, 68, 45, 52, -55, -67, -32, -31, 40, -21, -113, 63, 26, -50, 57, 72, 35, -6, 4, 38, 55, -11, 4, 22, -47, 60, 75, 48, 70, -12, -23, 58, 1, 56, 30, 89, -57, 6, -63, 28, -24, 26, -106, 64, 6, 60, 41, -22, -61, 71, -28, 80, -79, -85, 84, 19, 66, 46, -93, -55, 5, 55, -46, -46, 93, -76, 70, 73, 9, -40, -15, 72, 44, 25, 31, 60, -41, -76, 44, 64, 34, -52, -8, 2, -63, 22, 12, -46, 77, 86, -11, -55, 34, -75, 29, 62, -30, -40, -27, 23, 45, 35, 2, 7, -30, -20, 24, -75, 79, -21, 17, 7, -33, 94, -41, 74, -21, -10, 33, 85, 3, -19, 19, 64, 43, -25, 31, -76, 85, -73, 45, -28, 60, -73, 28, -59, 38, -38, -15, 61, -16, 51, 47, -39, -64, -63, 81, 63, -69, 15, -2, 67, -18, 45, -15, 42, 39, -60, -56, 25, 10, -21, -54, -56, -11, -9, -42, 25, 102, 28, 58, 60, 66, 74, 50, 16, -61, -4, -64, 10, 49, -16, 87, 24, -55, 55, -4, 20, 66, -78, -34, 13, 42, 7, 56, 15, 83, -18, -39, -70, 92, -49, -51, -75, 68, 83, -9, 43, 53, 45, 11, 33, 25, -9, -6, 50, 55, 50, -26, -27, -13, -35, -28, 23, 23, 13, 77, -63, -50, -68, -5, 86, 67, 24, 9, -19, 57, -17, 5, 1, 74, -47, -27, -66, -6, 79, 20, 9, -11, -1, 44, 70, 2, -68, -22, 88, 56, 58, 1, -3, 1, 34, -9, 40, 47, 82, -22, -2, 70, -39, -63, 46, 85, 16, 4, -51, -98, -29, -2, -43, 3, -86, -33, 69, 65, -9, -43, 55, 71, -27, 27, 27, 70, -57, 10, 29, 68, 19, 45, 7, 94, -81, 30, 34, 42, -21, 6, -47, -39, -35, 60, 70, -45, -17, -73, -23, 58, 14, 89, 18, -17, 6, 47, 78, -75, -33, 80, -54, -75, 63, 10, -43, 42, 44, -70, 7, -64, 71, -6, -70, 8, 65, 52, 10, 54, -17, 24, -5, -71, 82, 23, -66, 25, -40, -66, -9, 28, 40, -38, -37, 35, -28, 1, -34, -18, -63, 78, 101, -57, 53, -30, -34, 2, 47, -73, 58, 58, 85, -33, -27, -36, -43, -41, -70, -60, -51, 79, -70, 64, -49, -93, -75, -71, 71, 4, -78, 9, 72, -83, 61, 39, -36, 45, -1, 88, -11, -12, -75, 30, -70, -55, -37, 2, -11, 6, 17, 0, -15, -42, 15, 73, -65, 86, -42, 71, 10, 8, 18, 43, -18, 64, -55, 55, -7, -63, -34, -32, 53, 20, -33, -26, 43, -2, -3, 46, 21, -60, -10, -1, 41, 28, 76, 48, 4, -13, -12, -17, 53, -59, 75, 65, -3, 70, -76, 45, 87, 45, -55, 33, -19, 70, -46, 27, 84, 70, 48, 68, -59, -11, -74, 17, -18, 62, 60, 89, 97, -5, 63, 40, 63, -18, -2, 106, -16, 55, -3, 11, 6, 68, 17, -19, -57, -28, 9, -25, -13, 27, -1, 40, -62, -39, -17, -55, 9, -28, -21, -42, -55, 10, -33, 15, 61, -12, 52, -33, -28, 4, -18, 74, -74, 87, 22, 89, 21, 18, -87, 92, -22, 12, 0, -29, -57, 52, 75, 71, 31, 1, -1, -52, -7, -22, 48, -72, -18, -65, -40, 22, 44, 55, -30, 87, 75, -72, -61, 30, -19, -58, 21, -48, 5, -85, -41, 20, 46, 9, 43, -69, 68, 15, -9, -21, 14, -24, 7, 1, 37, -51, 55, 52, -11, -46, -29, -58, -38, -48, -9, -69, 33, -85, 3, -26, -34, -57, -2, -3, -50, -67, -12, 46, 33, 43, 64, -113, 15, 82, -18, 19, -17, 58, -12, -72, -50, 58, -17, -31, 35, -55, -6, 20, 61, -55, 56, 42, -37, -74, -41, -27, -69, 55, 40, -45, -33, 90, -10, 81, -18, -74, -18, -33, -22, -74, -81, 58, -67, -5, 20, -64, -12, -27, -70, -81, 32, -30, -33, 6, -46, 62, 72, -50, -42, -15, -12, -23, 1, 52, -15, -47, -39, 20, 74, 92, 11, -28, -23, 84, -55, -28, -85, -2, 20, 70, 72, -52, -15, -51, -6, -16, -6, -28, 62, 36, 58, -55, -34, -26, -43, 58, 7, -26, -63, -52, 35, -71, -11, -12, 56, -72, -32, -30, 6, -31, -70, 58, -58, -24, 78, -78, -12, 91, 48, -70, 93, 49, -49, -48, 45, 40, 49, 7, -14, 72, -19, 3, -91, 110, -87, -85, 31, 74, 54, -11, -47, -11, -1, 20, -66, -17, 80, 39, 37, -94, -52, 0, 65, -42, -28, -17, -12, -7, -49, 21, 77, 48, -45, 10, 15, -9, 24, 33, -57, 56, 44, 62, 19, 5, -8, 95, 57, 47, -31, -12, -103, 30, 74, -30, 38, -8, 31, 6, 69, 48, -29, 30, 56, -31, -70, -5, -67, 12, -21, -61, -58, -51, -40, -67, 31, 60, 51, 24, 8, -37, -69, 0, -86, -96, 82, 40, -83, 48, 56, -50, -69, 73, 61, -58, 54, -16, -76, 48, 30, 48, 18, 59, 29, -84, 79, 47, -61, 56, -70, 56, 37, 37, 46, -64, -41, -9, -29, 3, 17, 33, 75, -30, 2, -44, -3, -54, -75, -35, -67, 34, 62, 31, 71, -17, -34, -82, -50, 15, -67, 66, -93, 14, -56, -79, 80, -43, -77, -25, -25, 62, -33, 52, -61, 18, 67, -59, 22, 55, 82, 13, 19, 25, 86, 56, 10, 2, -34, -7, -46, 80, 69, 39, 53, -44, -42, 20, 75, 7, 57, -51, -69, 48, 44, 60, 22, -15, 74, 57, -22, 72, 62, -5, 58, 13, -21, -41, -28, 7, 64, 10, 25, 53, -22, -45, 14, -52, 9, -51, 87, 83, -3, 57, 25, -11, 29, -8, -40, 55, -2, 24, 51, 75, -3, 13, 5, -23, -1, -80, -76, 1, -28, 94, -10, -41, 21, 29, 36, -47, -42, 25, 106, 58, 28, 25, -46, 61, 36, 48, -81, -67, -77, 4, 76, 87, -40, 67, -8, -64, 40, -61, -71, -3, -76, -78, 53, -58, -51, -17, -46, 7, -24, -3, 95, -54, -22, -77, 85, 60, -10, 72, 5, 85, 44, -73, -48, 28, -50, 7, 54, -21, -58, 10, 13, 40, 58, 38, -26, 78, -38, 29, 50, -19, 38, -52, -2, 48, 76, -51, -51, -12, 78, -44, -20, -45, -9, 72, 31, -76, 18, 41, -41, 54, -63, 74, 34, 51, -59, -49, -25, 39, 33, 60, 55, 15, -47, -69, 63, -73, -64, 48, -51, -45, -21, 41, -90, 22, -3, 69, -68, 13, 32, -4, 56, -19, -60, 53, -15, -22, -57, -30, -32, 85, -47, -16, -51, -51, -50, 103, 37, 24, 82, 49, -74, 85, 17, -30, 29, 15, 66, -73, 71, -91, -83, -12, -19, 35, -55, 79, 9, 6, 61, -55, 54, 10, 79, -16, -39, 103, 15, -13, 24, 81, 49, 15, 35, 75, -82, 49, 46, -78, 70, -74, -80, -66, -22, 0, -61, 61, -73, -24, -32, -16, -35, -37, 59, -21, -62, 90, 56, 13, 23, 10, -58, -53, 53, 52, -24, 60, -8, -21, 47, 28, 14, 45, -42, -28, -17, 69, -109, 64, -79, 17, 28, 0, -67, -19, -22, 33, -20, 18, 38, 25, 69, 8, -62, 8, -79, -36, -5, 28, 69, 21, -21, 78, 84, -29, 51, -27, 94, -29, 58, 71, -32, 54, -9, -26, -6, -47, -72, 21, -7, 3, -41, -32, -7, -45, -1, 61, 63, 53, -72, -10, 2, 88, 28, -55, 73, 79, 68, 14, 39, -21, 57, -46, -46, -5, -6, 5, 38, 69, 19, 22, -1, -78, -3, 56, -34, -78, -48, -54, 58, -81, -8, 96, 35, -25, -96, -76, -65, 52, 53, -67, -64, 54, -39, -52, -39, -103, 51, 82, -55, 76, -14, 70, 14, 19, -90, -26, 0, -99, 71, 5, 56, -78, 4, 72, 66, 73, -90, -27, -31, -45, 57, -10, -1, 75, 17, 78, -32, -14, 51, 22, 28, -46, 75, 48, -66, 15, -9, -63, -5, -71, 45, 80, -23, 54, -35, -29, 51, -57, 9, -28, 33, 75, -73, 74, 22, 1, -28, -33, -12, 89, 82, -48, -43, -59, 65, -52, 70, 13, -13, -68, 71, -62, -84, 81, 52, 68, -28, -70, 67, 54, 21, -67, -14, -65, 54, -58, -66, -46, -23, 74, -79, -10, 34, -32, -43, 63, -32, -30, 68, 39, 35, -57, 7, -72, 59, -64, 52, -36, -64, 57, 41, 2, 47, -63, 15, -70, -39, -13, 3, -35, 18, 24, -11, 42, 14, -19, 34, 6, 14, -15, 65, -59, 73, -40, -40, -83, -73, -43, 28, 41, -72, -65, 4, 9, 73, 17, 25, -56, -82, 10, 12, 17, 42, -42, -7, -71, -20, -80, -6, 27, 0, 79, 45, 58, 23, 10, -19, 24, 58, 1, -16, 15, -3, 74, 64, -79, -77, -22, 51, 31, 60, -33, -24, 11, -40, 73, 51, 2, 42, -26, -55, 47, 77, 75, -29, -27, -98, -22, 31, -23, -48, -71, 40, 93, 47, -49, -14, -74, -44, -5, 44, -35, -8, 56, -6, -52, -10, 51, -104, 40, -37, 6, -61, -62, 5, 32, 82, -11, -55, 72, -36, 65, -10, 14, -4, 30, -47, 43, -62, -14, 66, 40, 18, 2, -7, -53, -11, 66, -74, -3, -15, 19, -97, -3, -71, 24, 3, -82, -8, -48, -16, 92, -40, 54, -78, -34, 63, -117, 19, -27, -73, 77, -69, 26, 22, 88, 0, 1, -52, 29, -69, 3, 54, -31, -87, 29, 55, -44, -39, 17, -54, -22, -88, 63, 24, -6, -58, -72, 7, 61, 87, -115, 34, -23, 68, 94, 51, 58, 8, -47, 28, 53, 66, 54, -42, 45, 31, 53, -54, 20, -45, -23, 20, 78, -14, 56, -33, 28, 15, -39, 26, 56, 47, -35, -10, 4, -75, -39, -82, -21, 73, 40, 51, 26, -21, -24, 70, 19, 56, 49, -55, 100, 49, 30, 77, 35, -21, -88, 43, 43, -20, 76, 2, 87, -10, -87, -5, -25, 65, 5, 27, 64, -14, 68, 37, -1, -16, -52, -61, -77, -83, 33, 68, -22, 35, -65, -66, -45, -95, 84, -67, -3, 45, -29, -34, 84, 14, 18, 1, -16, -40, -29, -24, 23, 82, -66, 34, 73, -12, -10, -37, -66, 47, -117, 23, 49, 40, -9, 40, 76, -51, 36, -29, -19, 78, 5, 14, 12, 44, -89, -45, -46, 42, -30, 78, 69, -11, 53, 84, 42, 74, 19, -15, -3, -18, -37, -23, 10, -58, -32, 2, 26, -35, -14, 37, 33, 42, 61, -1, -32, -47, 68, -54, -67, 34, 4, 20, -44, 25, -38, -35, -29, 75, 1, 18, -13, -55, -17, 62, 37, -69, -25, -61, 4, 64, -85, -42, 31, -69, 63, 48, 41, 82, -2, 18, 59, 46, -6, 27, -44, -13, -56, -36, 22, 47, 14, 89, 73, 28, 12, -33, -28, -33, -30, -28, 53, 62, -33, 80, -33, -12, 76, 26, 10, 56, -77, -44, -96, 45, 65, 1, -15, 68, -5, -34, -15, 36, 26, 50, -87, 14, 98, -13, 62, 78, 16, -45, -74, 18, -27, 61, -20, 42, 39, 76, 91, -69, 81, -58, 8, 57, -14, -91, -72, -1, -20, -21, -54, 19, 10, 7, -99, 65, 33, 23, -10, -53, -28, -40, -95, -1, -8, 77, 77, -42, -35, -66, 55, -5, -8, -20, 43, 37, -49, -108, -36, -29, -86, -8, 17, 35, -21, -77, 48, -23, 40, 25, 15, -57, 9, 5, -103, -47, -24, -55, -1, -25, -14, 62, -38, -45, -7, 49, -17, -14, -67, -61, 4, -60, -87, 18, 58, -93, -92, -33, 49, -16, -56, 53, -100, -71, 14, -72, -4, -57, -47, -79, -61, 77, -65, -24, -80, 15, -50, -42, 39, -85, -1, -43, 42, -16, 35, -37, 57, -8, -13, -47, 7, 2, 33, -7, -14, 26, 52, 12, 16, -64, -27, -9, -3, 22, -25, 28, -22, 74, 56, 4, 10, -19, 52, 56, 16, 31, -41, 92, -8, 3, -63, 57, 32, 57, 40, 74, 111, 83, 29, -23, 17, 48, -48, 53, 31, -66, 83, -58, 40, 59, -21, 65, -44, 31, 61, -9, 13, 81, 21, 58, 98, 43, -18, 26, -58, 68, -26, 17, 4, 63, 74, -104, -7, 16, -52, 25, -63, 12, -32, -70, -70, -11, -51, -23, -4, -26, 51, 4, 23, 57, -46, 23, 2, -49, 7, -62, 50, -46, 65, 24, 91, -51, -55, -10, -72, -11, 40, -28, -84, 94, -68, -42, -96, 59, 66, 47, 19, -41, -27, 44, -56, -46, 49, 93, -38, -77, -8, -48, -24, -41, -33, 79, -64, -74, 9, -28, -48, -17, -86, 42, -60, 1, 49, -21, 11, -62, -83, 75, 14, 47, -83, -41, 87, -32, 7, 2, -69, 12, -10, 56, -77, 96, -5, -17, 49, 59, 52, 7, 4, -31, -80, -58, 9, -19, 3, -72, -25, -22, -54, 36, -53, -16, 40, 38, -71, 8, -43, 1, -10, -58, -60, 60, -52, 70, -79, -46, -32, -67, -8, 45, 7, 19, -56, -46, 68, -13, 56, 5, 25, -30, 38, 83, 66, 34, -28, 58, 80, -68, 57, -71, -34, -64, -4, -8, -70, 20, 82, -83, -28, 38, -1, -46, 64, 76, 18, -63, 18, -15, 29, 69, -31, 59, 51, -67, 27, -21, 62, -36, -73, -4, 74, 60, -79, 60, -23, 66, 24, -14, 79, 22, -32, 3, 29, 14, -53, 5, 5, -45, -41, -36, 63, -20, -65, -35, 9, -64, 57, -31, -17, 65, -70, -53, 52, 21, 14, 55, 81, 31, 30, -30, 58, 67, 54, -15, -17, -49, 16, 50, 36, 1, -51, -23, -58, -54, 88, -35, -99, 74, 10, -50, 22, 67, -65, 82, -27, -70, 23, -69, -23, -9, 55, -70, 66, -11, 65, 68, 19, -74, 45, 17, 36, -43, 116, -5, -71, -31, -41, 44, 7, -62, 11, -86, -85, 81, -64, 19, -66, -63, -10, -19, 61, 43, -98, -85, -19, -11, -40, 17, 44, 56, -29, -3, 68, 50, -39, 63, -23, -4, -27, -15, -25, 10, 91, -72, 12, -100, 78, -54, -59, 54, -34, -55, -7, -39, -46, -48, 52, -46, -43, 61, -67, -55, -71, 116, 42, 24, -53, -51, 55, -21, 34, -81, -22, -15, -60, 57, 15, 62, -22, 76, 11, -15, -82, 52, -71, 3, 43, -28, 119, -3, 42, -71, 13, -112, -83, -70, 31, -35, 34, 31, -66, 14, -27, 2, -6, 81, 25, -61, 56, 11, -14, 73, 7, 79, 54, -83, -49, 0, -54, -83, 0, -14, -24, -10, -53, -44, -17, 69, 14, -5, -97, 69, -12, -90, -27, -69, -68, -39, -26, 0, -102, -91, -34, -8, -20, 12, 54, -76, 70, 69, -55, -51, 22, 7, 32, 65, 70, -72, -82, -64, 51, -46, -21, -64, 2, 2, -114, -16, -26, 76, 78, 5, 8, 39, -68, -58, 14, 46, -8, 4, -61, -9, -87, -59, 84, 55, 10, 24, -1, -86, -61, 31, 37, 76, -13, -36, -33, -13, 4, -13, 45, -15, -37, 91, 7, 11, -13, 62, 52, 18, 59, -61, -12, 62, -74, 23, 4, 67, -113, -56, 31, -23, 43, -13, -49, -82, -6, 17, -5, -100, 60, 8, 58, -59, -76, 64, -26, -80, -62, -62, -33, 28, -21, 71, 3, 9, -38, 40, 64, 24, 69, -15, 57, -67, 6, -65, 59, 75, -24, -25, -62, -14, 52, -19, -21, 59, 29, -42, 73, 7, -34, 33, 41, -49, -19, -8, 20, 5, -50, 65, -7, -33, -71, 38, -50, -102, -71, -35, 56, -76, 80, 87, -39, -107, 67, -74, -30, -4, 40, 92, 72, -19, 68, 89, 25, -50, 48, -76, 33, 5, -68, -50, 120, -27, 65, -20, 30, -59, 79, -70, -36, -32, -72, -42, 26, -14, 100, -63, 31, 7, -7, -26, 20, 44, 41, -13, -75, 31, -8, -26, 50, -42, 55, -17, -16, 36, 70, 68, -62, 10, 0, -84, 0, 19, -3, 74, 15, -10, -55, 48, -18, 51, 33, -22, -2, 84, -47, -10, -4, -27, 53, -19, -48, -9, 24, -5, -4, 25, -47, -9, -33, 13, 35, -64, 51, -39, -47, 18, 55, 13, 16, -45, 6, 47, -107, 6, -33, -3, -94, -42, 58, 32, -97, -113, -46, -2, -40, -9, 25, -46, -77, 23, 34, -11, 30, 60, 96, -74, 9, -10, 24, 37, 29, 72, 50, 12, 17, 6, 50, 52, 31, -6, 15, 66, -41, -86, 48, -80, 22, -18, 72, -26, -66, 0, -72, -21, -44, -37, 14, -25, 86, 54, 97, -38, -54, -36, 68, -27, -5, 90, -20, 42, 44, -33, -42, -20, 51, -30, -52, -39, -58, 2, -35, 34, 1, 81, 65, -83, 56, 54, -61, 54, 29, -94, -38, -20, -7, -19, -103, 32, -70, 6, -33, 6, -37, -70, -17, -45, 63, -32, 13, 15, 12, -52, -21, -59, 59, -54, -28, -113, -72, -26, -52, 21, -47, 75, 67, 72, -61, -21, -65, 11, -78, 2, -23, -2, 10, 11, 8, -61, -55, 27, 32, 57, -64, -82, -85, -10, -39, 41, 33, -90, -49, -9, 48, -14, -94, -65, -17, 18, -12, -53, 24, 69, -77, -61, -16, -32, 83, 62, 78, 60, 7, -7, 7, 65, -60, -96, 41, 73, 21, 29, -5, 21, -45, 2, -85, -71, 2, -8, 5, -82, -42, -31, -110, 73, 16, 21, -65, 14, -30, 16, -50, -19, 43, -43, -56, 37, -113, 16, -49, -17, -79, 40, 27, -81, 7, -26, 13, -5, -60, 38, 67, 31, 22, 6, -28, 49, 2, -65, -7, -65, 32, -80, 71, 47, -1, 43, -24, -50, 33, -46, 65, -5, 17, 13, 49, 17, -13, -59, -76, -40, 66, -26, 71, -74, -94, 18, -20, 55, -73, -78, 40, 61, -61, -12, -42, 73, 30, -14, 47, 77, 22, -45, -16, -3, -28, -68, 51, -7, -21, -20, -94, -30, -17, -107, -46, -8, 5, 5, -41, 7, -2, -29, -108, -106, 49, -30, 76, -29, -47, -22, -55, 57, -73, -46, 14, 9, -64, 39, 65, -89, 74, -37, -10, 75, 66, -2, -78, -28, -33, 61, 14, -77, 78, 5, -9, -25, 45, 30, -43, -75, -2, 16, 2, 60, -3, 22, 78, 70, -8, 54, -29, 17, 38, 18, -29, -11, 27, 29, -42, -34, 55, 2, -33, -1, -58, -66, 46, 52, 28, -40, 15, 8, -42, -78, -81, 32, -64, 21, 45, 73, -86, 9, 36, 83, -24, -62, 83, -72, -54, 22, -44, 63, -121, 47, -14, 82, 97, -34, 49, 31, 33, -77, -9, 27, 84, -42, 5, -77, -50, -35, -76, 40, -82, -65, -34, -48, 25, -1, -2, -3, -38, -65, 23, 6, 18, 1, -28, -5, 39, 3, 17, 60, 9, 77, 40, 56, -54, -11, 11, 43, -3, 65, -94, -42, 66, -57, 35, -9, -49, -5, -48, -27, -38, 16, 12, 78, -41, 41, -48, 65, -21, -65, -8, 10, -45, -58, -82, 39, 34, -35, 15, 25, -33, 92, 42, 32, 23, 82, -76, -12, -12, -51, 68, 20, 71, -16, 9, 8, -4, 26, 21, -25, 92, -9, 28, 96, -16, 48, -73, 44, 20, 32, 22, 52, 30, -4, 30, 21, 121, 14, -22, -32, -27, -3, 79, -16, -39, 65, 78, 24, -34, -13, -27, -9, -9, -70, -22, 3, 71, -82, -71, -35, -2, 81, -11, 62, 30, 66, -58, -8, -37, -41, -5, -9, -75, -50, -3, 0, -100, -78, -42, 34, -73, -53, 55, 39, -23, 31, 57, 45, -37, 55, -37, -29, 76, -8, -78, -86, 95, 25, 31, -29, 41, -37, -59, 25, -89, -53, 44, -28, -48, -71, -39, -56, -100, -76, -14, -15, -56, -18, -86, -33, 67, 24, -10, -27, 52, 57, 70, 46, -41, 63, 12, 17, 39, -59, 45, -36, -93, 39, -54, 79, 25, -29, -6, 45, -97, 43, 79, -17, 27, -14, 39, -30, -62, 19, -82, 14, 50, -43, 72, 49, -42, 59, -91, -45, -105, -79, -64, 4, -93, 12, -54, 4, -5, 33, -43, 92, -73, 18, 98, -71, 81, 42, -38, -20, -14, 84, -17, 8, -34, -2, -2, -15, 14, 95, 9, 39, 50, -7, 86, -3, 14, 76, 73, 40, 87, -75, 36, -41, 107, -71, -108, -69, -23, 28, -5, 89, -54, 23, -24, 48, 2, -20, 58, -73, 122, -49, -21, -57, 65, 29, 44, -78, 67, 7, 65, 49, 77, 5, 47, -58, 22, 12, -35, -81, -18, -86, 8, -55, -17, 111, 27, 60, -30, -17, -63, 18, -37, 59, -61, 66, 55, -7, -68, -94, 34, 16, 10, -51, -17, -23, -44, -28, 18, -37, -44, 72, 45, 5, -68, -12, -33, -35, -5, -9, 27, 71, 42, 71, -3, 79, 7, -27, -28, 3, -7, -31, -60, 58, -53, -3, -56, 47, -4, -36, -65, 61, 106, -38, 1, 14, 38, 15, 21, -104, -17, -66, -48, 13, 55, -42, -41, 54, 2, 87, 78, 40, 74, 85, 63, 15, 89, -59, 19, 107, 75, -19, -1, -53, 114, 1, -34, -38, -39, -59, 63, 23, 21, -30, -2, 10, -21, -9, -40, 25, 18, -16, 6, 39, -17, -4, 6, 8, -31, 5, -51, -4, 63, 58, 25, 65, -43, 11, 9, -64, -35, 71, 5, 53, -36, 53, 68, 34, 13, -35, 87, -10, 65, -16, -86, 6, -45, 54, -61, 101, 12, 42, -102, -63, -39, 8, 59, -76, -80, -81, -10, 96, -19, -53, 5, -14, 16, 61, -35, 88, 31, 31, 47, -57, -8, 71, 66, 38, 28, -58, -51, 15, 70, 71, -107, -16, 16, -5, 77, 26, 52, 15, -81, -49, 48, -25, 23, -47, 20, 42, -39, -67, 40, 65, 18, -102, -68, 54, 22, -5, 29, -90, 19, -74, -25, 16, 7, 17, 34, 78, -51, 64, -21, -36, 10, -55, -50, -73, -15, 24, 51, -30, -80, -42, 31, 28, -22, 5, 21, 4, -3, -5, -6, -14, -58, 43, -15, -56, -84, -36, -40, 43, -52, 83, 32, 19, -40, 88, 10, -35, -26, 31, 75, -31, -28, -53, 62, 42, -104, -14, -69, -25, 22, 37, -20, -58, 61, -66, -31, -49, 55, -53, 81, -63, -5, -26, -82, -51, -4, -30, -6, -10, 23, -36, -65, -61, -58, -29, 2, 62, -26, 56, 46, 41, -12, -81, 14, -19, 71, 56, 17, -9, 70, 71, 2, -2, -44, -44, -64, 76, 7, -11, 37, 32, -23, 59, -26, -46, -21, 25, -43, 29, -88, -73, -59, -25, -77, 32, 78, 60, -4, -47, -7, 76, -82, -25, 27, 26, -21, -4, 82, 60, 25, -60, 16, -52, 45, 66, -20, -22, -73, 71, 72, 21, -25, 54, -64, 26, 0, 82, 46, -85, 29, -51, -40, -40, 75, 30, 46, 52, -54, -67, -41, 62, -5, 83, -58, -84, -12, -115, 2, -67, 71, -52, 83, -16, 20, 58, -67, 34, -39, -45, -17, 100, -71, -47, -7, -82, -44, 0, -70, -17, -80, 78, -39, -18, -85, -78, 13, -17, 12, 63, -104, -85, -60, 46, -30, -110, 43, -38, 60, 20, -84, 58, 9, 111, -81, -28, 98, 15, 20, 61, 72, 12, -85, 0, 34, 23, 20, -11, 12, -31, -59, -68, 17, 31, 44, -46, 42, 13, -42, 11, -20, 35, -63, -9, -26, 95, 9, 30, -9, -53, -60, -31, 93, 119, 30, -70, -76, -32, -29, -53, 25, 19, 88, 65, -11, -44, -27, -51, 36, 10, 46, 92, 18, -7, 63, -63, 4, 66, 64, 80, 50, -23, -56, 2, -30, -35, -31, 29, 81, 10, -84, -9, 14, 30, 99, -82, -31, -69, 41, 84, -19, -39, -64, 4, 6, 56, 14, -81, -14, 114, 63, -1, -98, -23, 91, 14, 33, 96, 48, 15, -68, 76, 85, 30, 13, -7, -26, 18, -44, 57, -41, 102, 84, 48, 12, 18, -108, 77, 67, 11, -64, 55, -55, 20, -81, 14, -97, -59, -4, -31, -109, 37, 37, -27, -88, 33, 34, -74, 26, -49, 26, -61, -78, 7, 16, 72, -13, 78, 3, -53, -14, -82, -75, 32, 27, -78, -59, 24, -22, -45, -70, 19, 18, -57, 112, -7, 34, 55, -28, 15, -59, 59, -31, 73, -62, -6, -1, 2, -73, 47, -42, -47, -21, -38, 36, -33, 73, 55, -5, -7, -39, -37, -54, -69, -34, 24, 16, -68, 74, -65, 53, -62, -64, 89, -75, -56, -55, -39, 25, 73, -37, 77, 81, -19, 51, -5, -33, -37, 40, -16, 47, -63, -33, -59, -83, -22, 6, -25, 49, 4, 90, 82, -33, -35, -33, -61, 15, 31, 89, -89, 55, -11, -93, -87, -82, -36, -105, -59, -89, 75, 20, -83, 14, -8, -8, 77, 3, 14, 46, 49, -25, 38, 76, -95, -65, -84, -50, 20, 38, -47, -16, 54, 33, 64, -99, -19, 20, 30, -19, 53, 6, -68, -33, -36, -66, 39, -68, -60, -5, 24, -41, -23, -9, -48, -7, -24, -5, -60, -13, -19, -26, 82, 55, -23, -36, 61, -50, -35, 48, 76, -51, 54, -2, 63, -64, 77, 77, -29, -57, -51, -51, 49, -35, 45, 87, 44, -18, 14, -49, 32, -45, -1, 22, -42, 20, 35, -86, 90, -88, -60, 12, 2, 14, -35, 77, 35, -20, 70, -92, 2, -44, 33, 4, 41, -56, -60, 0, -40, 46, -49, -1, -59, -22, -22, 52, 70, -58, 7, 67, 60, 46, 72, -28, -40, -85, -66, -51, 21, 33, 24, -39, 77, -67, -11, 72, -23, -54, -89, 82, -5, -54, -21, -22, -57, -11, -21, -87, -83, 26, -22, -79, -37, 23, 58, -41, 32, 33, -74, -52, -10, -16, 15, 73, -20, -66, 47, 76, 2, -9, -59, 48, -62, 54, -68, -9, 20, 37, 35, -88, -57, -31, -19, 7, 43, -46, -95, 1, -29, 0, -4, 104, -35, -65, 2, 10, -30, 46, 25, 49, 16, 15, 96, 79, -31, 71, 9, 67, -40, 14, 65, 83, -43, 69, -33, 82, -44, 85, 18, 67, -47, -8, 40, 79, -30, -46, -51, -58, 71, -72, -20, -7, -44, 7, -64, -115, 41, -15, 64, -31, -41, -53, 2, -8, 59, -69, 28, -54, -35, 37, 101, -111, 52, -68, 21, -64, -80, -39, 42, -10, -42, -30, 76, 6, -64, -51, 81, 14, -12, 53, -59, -19, 75, -6, 56, -58, 0, 34, -55, -66, 40, -66, -70, 68, -74, 106, -22, 5, -81, 27, 58, -17, -21, -11, 86, -6, 0, 61, 27, 63, 49, -26, -79, -43, -15, 88, -24, -26, -29, 19, -103, 18, -15, 37, 20, -72, -83, -66, -32, -68, -72, -58, 86, -85, 1, 8, 74, -66, -48, 16, -24, -71, -4, -85, 55, -100, 39, 50, 83, -67, 50, -56, -24, 54, -62, -68, 11, 36, 57, -59, -61, -1, -45, -67, 21, 52, -41, -76, 47, 5, -64, 58, 54, -43, -27, -70, -53, 56, 21, -60, -52, 59, -59, -36, -29, 49, 34, -50, 32, -5, -26, -12, -29, 10, 80, -16, -30, -23, -6, -31, -28, -37, -76, -40, 55, -68, 42, -7, 13, 18, -8, 66, 12, -79, 40, 5, -26, 21, -35, 44, 56, 65, -81, 49, -77, 0, 56, 7, -48, -3, -51, 38, 22, 54, -10, -49, -3, 63, 18, 10, -46, 49, -73, 84, 20, 2, 57, 62, 61, 75, -58, 53, -57, -47, -23, -81, -71, -20, -32, 70, -32, 21, -5, -24, -11, -34, -13, -5, -15, -15, 44, -11, 41, 81, 11, -34, 70, 72, -29, -28, -51, 6, -58, -59, 28, 34, -30, 45, 50, -59, -5, -28, -34, -42, 10, -53, -76, 5, -84, -10, -60, 59, -107, -30, -43, -106, 7, -50, 21, -36, -67, -21, -88, 51, -10, -3, -88, -25, -77, -87, -1, -35, 21, -6, 6, -5, -3, 54, 18, -4, 66, -84, -20, 109, 62, -56, -1, 26, -69, -46, -75, -4, -20, -28, 38, -87, -69, -16, -12, -46, 49, -119, -47, -60, -1, 38, 42, -33, -53, 23, 31, 71, 65, 37, 55, 41, -45, 85, -72, 5, -26, 50, 10, -36, -40, -47, 45, 84, -15, -47, -7, 30, -58, 26, 0, 52, 120, -41, 11, 21, -76, 64, 72, 16, 53, -60, -63, -4, -1, 77, -39, 60, 20, 22, 14, -5, -62, 30, 77, 12, 69, -3, -45, 96, -41, -23, 73, -2, -24, 65, 46, -69, -74, -36, 104, 69, -59, -66, 71, 81, -17, 7, 34, 88, -123, -41, 58, -27, 35, 83, -68, 28, 37, 68, 0, 69, 69, 27, -51, 0, -40, 35, -65, 29, 49, 82, -59, -88, -102, 89, -41, 16, 40, 4, -67, 23, 14, 6, 29, 76, -82, -102, -9, -9, 53, 119, 24, -63, -81, -8, 0, -98, -66, 24, -98, -1, 33, 117, 70, 10, 52, -36, 44, -28, -18, -58, -34, 46, -29, 14, -25, 0, -87, 72, -43, 18, -1, -64, 65, -45, 3, 17, -19, 54, -2, 22, -59, -24, 79, 18, -21, -56, 52, 8, 4, 77, 67, 59, -27, 2, 15, -18, 52, 13, 63, -50, -31, -87, -65, -119, 32, -57, -56, -56, -13, -60, -29, -86, -54, 30, 13, -104, -75, 28, 59, 18, -34, -44, -52, -40, -84, 24, 2, -75, -18, -79, -1, -9, 9, -5, -14, -65, 28, -49, 6, -16, -31, 46, 10, -49, -82, 27, -37, 3, 6, 15, 72, -111, 3, 120, 6, -55, 59, 36, -61, 65, 17, -37, 37, 3, -15, -28, -95, -78, -91, -33, 48, 54, -71, -55, 57, -48, 90, 65, 47, 8, 42, -34, 38, -81, 3, 90, -27, 54, 86, 19, -61, 47, 63, -18, 40, -10, 19, 15, 10, 82, 98, -3, -83, 5, -1, -23, 35, 45, -60, -11, -50, -10, -5, -4, -76, 28, -60, 34, -8, -9, 17, -108, -99, -20, 62, 48, -67, 41, -89, -71, 62, 45, -30, 0, -78, -86, -13, 2, 54, -49, -41, -99, -74, -45, -3, -41, -35, 33, 1, -62, 76, 26, 21, -53, 8, 75, 12, -38, 28, 52, 54, -73, 68, -36, -42, 31, -18, 68, -40, -53, -72, -81, -36, 49, -43, -7, 57, 5, -23, -58, -18, 7, -14, -64, 46, -46, -51, 28, -20, -39, 10, -55, -72, -57, -32, -35, 44, -64, -14, 52, 41, 59, 53, 21, -46, -24, -16, -102, 40, -32, -9, -113, 34, 28, -72, -43, -97, -93, -29, 49, 15, -67, 40, 49, 20, -15, -32, -66, -96, -49, -94, -23, -46, 57, 47, 47, 82, 27, -71, 26, 89, -4, -60, 14, -41, -7, 65, 50, 71, -52, 71, -19, -35, 41, 85, -45, -26, -2, -87, 37, -51, -16, -52, -17, -9, -10, 56, -18, -51, 13, 81, 45, -66, -67, 13, 38, 70, -81, 71, 19, -5, -47, 65, -45, -45, 3, 33, 88, 62, -61, -47, 39, -45, 33, 62, 10, -6, 15, -61, 8, 28, -48, -72, -20, -14, 39, -61, -64, 51, -51, 76, 76, 28, 64, 8, 95, -29, -14, -54, -14, -98, 37, -91, -12, 35, -49, 3, -52, -81, 53, -84, 88, 48, 5, -58, 60, 31, -1, -59, 14, 31, 97, 28, 30, -60, -47, -50, 18, -41, 36, 1, 44, 88, 84, -46, 59, -69, -37, -9, -90, -75, -50, 53, -22, 8, -90, -80, -36, 13, 80, 49, 31, -65, 2, 26, -44, -30, 5, 34, 29, -4, -2, 36, -93, 64, -35, -63, 9, 31, -31, -56, -33, -39, 0, -26, -38, 7, -105, -71, 52, 17, 23, -11, 75, 41, -115, 31, -7, 20, -81, -22, -39, -29, 60, -41, -40, -55, 86, 29, 92, -25, -18, 36, 54, -62, 42, -49, -8, -66, -16, -20, 68, 2, -71, -35, 4, -67, 66, -77, -14, 50, -64, 29, 75, -10, 55, 31, -81, 6, -39, -73, 31, 43, -54, -59, -16, -82, 54, -21, 0, -27, -21, 40, -39, -69, -54, -24, -79, 23, 18, 2, -13, 20, 57, -58, 22, -19, 83, 12, -34, 55, 7, 84, 71, 57, -78, 40, 5, 16, -21, 42, 87, -1, 21, -25, -61, -20, 54, -18, 29, -76, 54, 79, 58, -49, 12, -88, -40, 7, -46, 3, 13, 67, 87, -36, -38, 80, -23, 72, -10, 75, 56, -35, 23, -101, -9, 50, -53, -13, -86, -8, -74, -12, -27, -61, 43, -10, -53, -51, -80, -60, -91, -65, -25, -91, -108, -102, -111, -21, -1, 8, 62, -4, -84, -87, -71, 48, -11, -36, 36, -29, 42, -51, -105, 78, 76, 1, 65, -74, 41, -109, -92, 4, 35, 45, 16, 24, -47, -78, 30, 15, -78, 52, -14, -75, -82, -41, 79, 70, 25, -52, 26, 8, 13, 14, 47, 2, 72, 42, -60, 82, -31, -75, 24, 68, -18, -4, -51, 51, -34, 84, -77, 68, -52, 38, -11, -40, 21, -16, 69, -41, 9, -64, 4, 26, 65, -47, -38, -72, -24, -41, -39, 24, -29, -50, 23, -78, 70, -44, 8, 100, 81, 73, -57, -58, 65, -62, 31, 4, 71, 58, 50, -73, 65, 38, -33, -32, 27, 64, -74, -78, -25, 45, 45, -5, -50, -67, -2, 12, 3, -46, -42, -52, -37, -37, 7, 73, 40, 73, 77, -41, 18, -43, -37, -59, -92, -36, 51, -72, 3, 32, -21, 50, -87, 66, 36, -77, 97, 50, -96, -65, -49, 26, -15, 6, -48, -69, -29, -49, -111, -34, 75, -62, 8, -71, -34, -17, -57, 2, -43, -22, -101, 61, -1, -8, -70, -79, 9, 34, -92, -45, -87, 5, -12, -89, -91, -36, 33, 30, -23, -39, 50, -60, -54, -83, -9, -48, 56, 52, 73, 70, -72, 77, 65, -47, 85, -70, 30, 57, -13, -10, -52, -80, 44, 15, -77, -83, 70, -70, -36, -20, -60, -71, -34, -6, 15, 25, -42, -84, 19, 71, -11, -2, 11, -23, -67, -75, 21, -51, 15, 73, -37, -55, 30, -64, 54, -32, -40, 75, 21, 37, 48, -55, 20, 68, -40, -15, -57, -4, 23, 66, -96, -6, 15, -46, 1, 7, 8, 9, -85, 35, 91, 49, 37, 46, 25, -102, -70, -40, -61, 69, -35, 46, 1, -71, -34, 41, 15, -30, -85, 2, -48, 19, -42, -89, 49, 65, -119, -74, 69, 57, -90, -6, 84, -82, 1, 50, -54, 53, -17, 33, 65, -37, -54, 26, -66, 32, -62, -53, 2, 30, -42, 31, -59, -9, -68, -51, 8, 16, -2, 60, 42, -20, -72, -28, 97, 44, 63, 10, -9, 23, 88, 71, -9, -39, 9, 4, 53, -69, -77, -36, 28, -37, -8, -62, 74, -68, 15, 75, -51, -78, -46, -54, 56, -63, -50, 0, -27, 14, 14, 30, 59, -81, -45, 48, 34, -10, -77, -21, 2, 61, -36, -62, 0, -51, 71, 12, 27, 71, 7, -89, 21, -50, 42, 21, -20, -20, -10, -86, -48, -70, 45, -69, -44, 17, 35, -45, -78, -73, -25, -6, -8, -84, -39, -91, 77, -55, -26, 2, 42, -42, -97, -17, 107, -54, 69, -71, 54, -46, -9, -32, -8, 44, 12, -107, 47, -12, 15, 18, -24, 48, 33, -32, 5, 54, 21, -42, 25, 83, -28, 40, -88, 2, 26, 34, -16, 33, 97, 10, 1, 11, -4, -44, 10, 74, -57, 40, -46, 97, -36, -5, -60, 4, 77, 25, 37, 49, 14, -7, 77, -79, 60, 42, 41, -64, 51, 61, 44, 16, 68, 50, -11, 85, -70, 24, -15, 24, 53, -70, 45, 0, 76, -80, 69, 25, 29, 62, 31, -43, 8, -9, 40, 3, -54, 67, -68, -29, -82, 36, -38, 39, -95, -25, 40, 83, -19, 66, -17, -60, -87, 31, -101, -3, -47, 82, -86, -51, 48, 27, 13, -64, -21, 40, 44, -38, -33, -66, 22, -44, 51, -64, 22, -78, 51, -56, 19, -11, 41, 21, 0, 23, 28, -59, -2, 24, 87, -60, 4, -13, 21, 68, 4, 8, 24, -36, 3, -15, -5, 64, 45, 17, 63, -23, -85, 61, -49, -13, -62, 42, -26, -53, 40, -68, 87, 24, -15, -71, 70, 24, 89, 35, -67, 28, -6, -52, 3, 47, 65, -63, -32, -80, 33, -99, -2, 79, -56, -2, 49, 48, -73, 12, -73, 50, -97, -33, 19, 66, 36, 76, 14, -77, -83, -67, 59, 14, -18, 37, -66, 41, -54, 36, 80, 19, 76, 30, 66, -13, -46, 27, 23, 60, 6, -90, -6, -75, 32, -64, -52, -64, 62, -32, -2, 7, -9, 85, 16, 55, 9, 55, -32, 38, -41, -34, 42, 19, 18, 76, -69, -33, 11, 30, 63, -83, 73, -82, -3, 74, 72, 83, -78, -68, -4, 63, -2, -77, 11, 53, -75, 60, 64, 3, -31, -12, -62, 13, 54, 62, 14, -89, -15, -25, -15, -29, 66, -13, -62, 35, -52, 42, -8, -83, -67, -60, 59, -7, 4, -10, 74, -8, 47, 57, -28, 84, -66, -20, 82, -25, -4, -60, -54, -112, -47, -48, 49, -48, -29, 80, -17, -39, -22, -98, 38, 22, -58, -14, 18, -82, -66, 47, 19, -1, -36, -105, 57, 4, 12, 40, -34, -24, -40, -17, -74, -80, -35, 65, 52, -39, -7, -30, -17, 9, -66, 42, 73, -73, 63, -7, 39, -104, 12, 4, 9, 11, -75, -107, 41, -7, 8, -57, 6, 32, 57, 78, -68, -16, -26, 57, 9, 73, -21, 36, 10, 55, 6, 80, 44, 8, 88, -48, 5, 35, 84, 56, 49, -76, -86, -87, 77, -52, -25, -9, -64, 16, -22, -76, 85, -39, -17, 32, -42, -30, -65, -35, 23, -27, 47, -25, -45, -1, 73, 9, 64, -17, -9, -80, 49, -80, -28, 96, 5, 36, -52, -7, 30, 81, -50, -26, 46, 23, 8, 35, 54, 80, 16, 21, 71, 24, -50, 31, 14, -48, -27, 27, -45, 36, 62, 68, -67, 59, -36, -32, -59, 38, 46, 70, 94, -49, 14, 29, 74, 54, 80, 74, 9, 27, -86, -25, 75, 69, -30, 47, 37, -42, -54, 30, 4, 12, -40, 57, 45, 8, 5, 7, -22, 32, -28, -3, -3, -70, 75, -70, -6, -3, 28, -57, 8, -74, -52, -5, -84, 76, 27, -16, -83, 67, -68, 31, -45, 18, 29, -57, -58, -26, 23, -26, -71, -64, -60, -13, 10, -56, 80, -52, -12, 69, 15, -23, 20, -9, -97, -55, -54, 12, -36, -12, 52, 38, -65, 20, -2, 47, -34, -41, -34, -21, -2, -90, -45, -60, -104, -46, 25, -41, 55, 52, -16, -2, -94, -62, -39, -57, -49, 66, -52, -61, -83, 36, -36, -5, 32, 38, -25, 42, -73, 45, -13, 29, -31, -88, 45, 17, -95, -16, 35, -27, 33, 22, -66, -24, 47, -11, -17, -81, 61, 30, -74, -7, -42, -89, 31, 28, -72, -82, 43, -10, -60, -67, -46, 68, 41, 101, 42, -7, -9, -15, -31, -64, -78, -59, 22, 13, -38, -10, -58, 6, -7, 13, -87, -13, 18, 29, 22, 53, -77, -50, -73, 52, 20, -3, -44, -77, -49, -86, 38, 1, -54, 22, 76, -24, -70, 19, 22, -75, 14, -3, -4, -19, -18, -43, -69, -16, 29, 29, -53, 51, 6, 6, -20, 58, 28, 58, -13, 20, -51, -78, -52, -84, -6, 44, 16, 44, 77, 13, -51, 71, -41, 85, -27, 39, 50, -72, 6, -63, 114, -48, -24, 37, 18, 52, -29, 28, 39, 48, 72, -33, 15, 38, -6, 76, 39, 44, 78, -65, 15, 52, -62, 26, -27, 26, -89, -56, -68, -107, 56, 22, 49, 22, 11, 76, -12, 11, 17, 61, 65, 16, -41, 28, -68, 78, -9, 74, -73, -46, 8, 71, 7, 76, -42, -79, -81, 21, 90, -13, 54, -5, -8, 70, -44, -80, 13, 16, 53, -22, -78, 38, -91, 71, -112, -54, 28, 22, -2, 30, 9, 28, -4, -38, -45, -52, 29, 33, 79, -75, 97, 71, 8, 57, 72, 7, -85, -5, 92, -60, 80, -68, 89, -59, 82, 12, 20, -57, -20, -63, -76, 18, -107, -1, -63, 45, -70, 36, -65, 106, -43, -28, -4, 34, -66, 22, -51, -6, 10, -27, -1, -14, 76, 24, -56, 61, 50, -21, 92, 62, -46, 78, -57, 79, 34, -5, 26, -29, -33, -65, -17, 37, -24, 36, 75, 71, -5, 54, 46, 80, 73, 45, 34, -55, -70, -16, 37, -17, -10, -58, -92, -89, -51, -50, -82, 0, -22, 16, -4, -55, 8, 74, -23, -20, 76, -7, 48, -75, -58, 46, -56, -2, 50, -19, 0, -46, 67, -41, 39, -50, -18, 35, 64, 8, -44, -74, 66, 69, 33, 39, 12, 37, 49, 65, -61, -70, 22, 91, 54, 9, -10, 10, 44, -2, 36, -62, -115, 73, -53, -47, 67, -1, -46, 26, -30, 64, -73, -16, 40, -41, -11, 38, -30, 71, 9, -10, -8, -21, 47, 70, 22, -16, 10, -37, 61, -53, 81, -19, 4, -41, -68, -30, -59, -17, 53, 22, 8, 3, -34, 41, 92, -57, -49, -58, 64, 40, -16, 70, -58, 5, -6, 29, -45, 24, -2, -27, -76, 28, 14, -46, 49, 51, -25, 10, 40, 15, -63, 46, -18, -42, 3, 62, 64, -55, 30, -33, 5, -72, 73, 31, -69, 33, -58, 55, -12, -16, 45, -57, -38, -16, 81, -43, 70, 41, 0, -50, -48, -77, -22, 81, 67, 80, -27, -40, 83, -63, 19, -66, 55, -80, 10, 41, 66, -56, -24, -39, 48, 76, -2, -53, 67, 13, -32, 66, -80, -16, 67, 45, 26, 61, 75, -14, 55, -12, 47, 5, -34, 50, 2, -68, 76, 67, 42, 34, 10, 39, 52, -77, -11, -24, -17, 55, -78, 43, -12, 32, -24, 21, -61, 33, -97, -77, 1, 30, 42, 29, -1, -101, -33, -72, -92, -48, 19, 20, 47, 41, -43, -67, -79, -19, -17, -78, -23, 47, -3, -22, -82, 76, 56, -5, -40, -53, 2, 20, -83, 71, 14, 16, -25, -54, 74, -17, -34, -75, -49, 9, -49, 81, -68, -60, 46, 77, 39, 38, 63, 62, -9, 16, -32, -14, 79, 57, -84, -20, 50, -6, 85, -73, 72, -70, -46, -45, 68, -62, -68, -10, 3, 74, -82, -21, -61, -24, -57, -56, -86, -45, -23, 16, -64, 33, 77, 54, -71, 55, 7, -53, 42, 12, 82, -25, 1, 49, -71, -30, 19, -28, -47, 67, -70, -14, -87, -21, -24, 49, -17, 14, -28, 82, -12, -61, -15, -55, -18, 7, 50, 40, 10, 0, 15, -65, 40, -16, -59, 59, -69, 79, -57, -18, 13, -5, 64, 24, -62, -16, 52, -62, 12, -16, -94, -72, 57, 42, -30, -25, 30, 1, 8, -61, -66, -60, 37, -32, 60, -25, -77, 76, -83, 64, -55, -64, -8, 65, -79, 22, 23, 49, 55, -31, 10, -85, 28, 9, 86, -23, 6, -94, -35, 36, -91, 27, -23, 44, 37, -41, -45, -74, -32, -101, 52, 39, 46, -55, -71, -49, 25, 39, 1, 73, -21, -23, -4, -29, -63, 66, 29, -96, 11, 50, -22, 55, 44, -68, 42, -13, -14, 7, 7, -123, -77, 18, -79, -59, 20, 47, -99, -41, -47, -46, -91, -15, -23, -46, 1, -5, 36, 34, -35, -57, 56, -55, -8, 15, -41, 1, -71, -71, -37, -65, 58, -25, -53, -15, -81, 87, -22, 13, 57, -55, -104, 44, -37, 37, -70, 8, -39, 30, 21, -26, -22, 42, 28, 30, 20, -46, 19, 25, 64, 4, -47, 26, -20, -12, 59, 11, 22, 66, -6, 63, -63, 60, -50, -9, 39, 13, -65, -12, -5, 55, 11, 34, 1, 45, 39, -38, 22, -33, -81, -5, 44, 11, 48, 101, 69, -68, -101, -69, -78, -43, 26, -49, -64, -63, -51, 47, 19, -68, 24, -32, -28, -89, 66, 15, 37, 13, 11, -82, -25, -52, -43, 7, 22, -27, 68, -4, -61, -32, -43, -65, -31, 21, -8, 6, -61, -23, 35, -8, 93, 53, -52, 47, 61, 19, -35, -42, 51, -57, -23, 75, 86, -50, -90, -82, 3, -57, 92, 14, -36, 120, 47, 7, -68, -49, -61, 84, 30, -34, 13, 23, -82, 82, -84, 11, -90, -77, 6, -80, -26, -98, -3, -56, -29, -96, -63, -72, -6, 4, 50, 39, -45, 36, 0, -96, -36, -14, -53, 10, -34, -52, 64, 77, -24, -79, -30, -17, -12, -37, 20, 81, 87, -50, 32, 29, -67, -71, 40, -63, -90, -93, -70, -16, 41, 50, 3, -56, -61, 37, -23, -67, -56, -117, -39, 40, 13, 31, -49, -24, 21, -72, 17, -70, -55, -44, -14, 102, -83, 74, -10, 77, 17, -52, 8, 66, -81, 10, 61, 18, -26, -46, 30, -6, 49, 58, -13, 71, -69, -17, 17, 98, 82, 69, 46, -51, -30, 38, -64, -40, -76, 8, 39, 39, 61, 86, -67, 51, 39, 75, 63, 29, -56, 67, 42, 59, -47, 68, 12, -51, -78, 76, 83, -20, -58, -19, 94, 69, 103, 69, -24, 81, 72, -64, -57, 28, 31, -64, -64, 37, -48, -72, -56, -47, 21, -3, -12, 53, 57, 72, 3, -21, 74, -80, -15, -73, -13, -47, -36, -42, -50, 41, 44, 80, -2, 27, 29, 53, 67, 47, 49, 37, 3, 12, 20, -48, -60, 15, 89, -58, -63, -46, 0, -23, 23, -79, 19, -8, 85, 80, -41, 52, -33, 18, 36, -85, -23, 28, -18, 57, 71, 18, -21, -42, 49, -15, 3, 35, 7, 25, 87, -44, 33, 14, -16, 28, -27, 65, -1, -29, 73, 46, -102, -23, -52, -64, 14, 56, 64, 5, -34, 30, -6, 68, -109, 46, -41, -4, 86, -25, 48, 4, 62, 74, 46, 84, 64, -52, 72, 56, 54, 22, 71, 67, -20, -22, -51, -23, -27, 29, -61, -59, -90, 57, 69, 53, 62, -13, 32, 16, -2, 64, -57, 21, -49, -23, -68, 66, 26, 70, -71, -8, -77, 5, -33, -15, 80, 25, -35, -36, 35, 33, 42, -35, 46, 31, -77, -67, -93, -24, 44, 13, 63, -59, 5, -27, 74, 63, -41, -70, 46, 6, 71, -18, 27, -80, 49, 86, 32, -31, -79, 0, 33, 19, -34, 4, -37, 16, 83, -7, 21, -51, 10, -59, -35, 38, -45, 19, 2, 79, 29, -64, -63, 25, 35, 67, -43, 28, 52, 70, -28, -34, -12, -22, -45, -90, -9, 16, -62, -15, 55, 42, -53, 26, -31, -3, -3, 48, 40, -67, 58, 48, 40, 58, -13, 46, 23, 72, 16, -89, 12, -17, 92, 44, 78, -42, 54, 37, 66, 39, 82, 39, -82, -41, -24, -58, -7, 32, 53, 30, 63, -109, -61, 45, -77, -73, -21, 29, -42, -9, 88, 47, 52, 84, -25, -49, -85, 67, -8, -57, 5, 74, -55, -79, -3, 8, 60, -47, 24, 58, 72, -16, -17, 41, 53, 0, -104, -72, 25, -54, -45, -28, -11, -38, 42, -6, 27, 68, 29, 5, -11, -83, 77, 62, -46, 45, -46, -12, -69, -31, -29, 40, -21, -65, -68, 6, 17, -52, 67, 16, 23, 30, 35, 63, -59, -37, 61, 64, -46, -12, -24, -11, 15, 55, -65, -17, -30, -49, -75, 83, -19, -23, 56, -59, 39, -51, 87, 71, 37, 38, -50, -30, 49, 35, 13, -74, 36, 110, -44, 39, 9, 80, 24, -30, 31, 85, 8, -60, -1, -40, -54, -69, 5, 20, 79, -49, -21, 47, 50, 72, -3, 56, 80, -19, -74, 29, 72, 51, 20, 26, -25, 0, -42, -33, 8, 34, 62, -36, 33, 15, 10, -3, -36, 3, -18, 37, 27, 122, 61, 48, -43, 69, 40, -31, 108, -86, -55, 77, 3, -60, -25, -5, 49, -22, 103, -12, -38, -71, -30, 69, 93, -47, 65, -30, -58, -65, -18, -58, 50, 11, 28, -48, -45, -16, -42, -77, -42, -5, 46, -24, -5, -81, -13, 38, 83, -1, 7, -38, -9, -23, 76, -58, 40, 50, -14, -15, -40, 22, -19, 9, -41, 112, 57, -28, 35, -1, -25, -75, -35, 13, -54, -6, 29, -16, -73, -51, 59, 22, 42, 0, -18, -25, 43, -7, -51, -4, -34, -61, 62, -104, 17, -21, -48, -62, -98, 32, -65, -69, 69, 58, -73, 50, -84, 36, -78, -26, 42, 9, -5, -76, -32, -70, 100, 30, -4, 17, 72, 17, -13, -47, -75, 52, -52, 39, 90, -118, 39, 25, 10, 48, -53, -47, 56, -45, -37, 69, -10, 10, 61, 67, 36, 78, 63, -43, 97, 51, 43, -47, -60, -77, 3, -74, -63, 24, 66, 19, 48, 31, -30, 73, -90, 15, -27, -74, -31, 2, 67, 53, -34, 71, -64, -66, 55, -50, -72, -65, -10, -15, 31, -93, 3, 10, 4, 35, 50, -29, -27, 21, 76, 8, -39, 41, 45, 88, -26, -5, 113, 7, 73, -36, 3, 8, -96, -84, -52, 63, -109, 72, 9, 86, 4, -73, 56, 34, -43, -31, -102, 40, 45, 86, -94, -59, 9, -17, -66, 38, -70, 36, -64, -54, 28, 44, 100, 16, -99, -68, 27, -78, -34, -71, -74, -20, 31, -54, -65, -75, 66, 11, 0, -82, -29, 19, -64, 53, 21, 52, 32, 33, -58, -2, -39, -64, -46, 52, 40, 80, 47, 41, -12, -62, 44, 62, -6, 33, 34, -35, -61, -75, 47, -77, 82, 48, -29, 39, 41, -25, -78, -46, 45, -24, -3, -31, -51, 76, -70, 34, 16, 83, 42, 91, 68, -38, -16, -76, -49, 24, 51, -4, -42, 60, 40, -63, 16, 17, 40, 54, -15, 81, 69, 3, -36, 26, 64, 6, -48, -45, 81, -73, 95, -39, 13, 55, 32, -1, 88, 68, -77, 11, 5, -62, -66, 80, 88, 79, -39, 51, -18, -54, 37, -1, -71, 18, -69, -99, 30, -20, -107, -26, -49, 65, -9, 9, 9, 18, 57, -75, -24, 40, -77, 23, -25, -78, -84, -9, -3, -36, -61, -60, -74, 46, 81, 14, -62, -8, 2, 0, -58, 65, -23, 4, 36, -41, 56, -31, 21, 63, 92, -68, -106, -73, 54, -65, 35, 1, 77, 30, -57, 20, -70, 43, -16, -15, -46, 80, 12, -8, -24, -29, 16, 83, 3, 90, 8, 52, 46, -52, 34, -25, 0, 54, -74, 48, -18, -6, 39, -73, 29, 55, -96, 10, -45, -27, -55, -86, -43, -55, -75, 82, -39, 68, -81, 93, 90, 36, 25, 43, -4, -19, 10, 60, 12, -50, 45, -18, -4, -51, 5, -33, -44, -14, -32, -33, 52, 78, -18, 15, -12, -76, -21, -62, -47, 55, -42, -30, 49, -18, 75, 70, 73, 30, -75, -69, -41, -68, 32, 18, 49, 14, -43, -68, 76, 39, -46, 3, 61, 4, 76, -89, 49, -61, -48, 65, 35, -84, 66, -9, 60, 39, 32, -4, -15, -66, -32, -58, 34, -73, -41, 57, 11, 50, -67, -24, 53, 64, 52, -65, 8, 80, -1, -88, -36, -66, 32, -48, -34, 73, -29, 69, -55, 70, -85, -20, -53, -38, 29, -22, 71, 5, 73, 29, -44, 73, 9, -35, 21, -6, 10, 97, 79, 5, -63, 75, -35, -66, -26, 57, -51, -19, 70, 54, 26, -65, -22, -27, 15, -69, -39, -82, 19, -13, 64, -69, 48, 26, 67, -46, -42, -71, -89, 82, 88, 42, -52, -9, -77, 51, -19, -27, -74, 34, -51, -69, 33, 20, 73, -81, 20, 1, 60, -7, -51, -3, 53, 70, -36, -91, 6, -64, -68, -79, -28, 2, 38, 34, 17, -31, 80, 43, 34, -62, -76, 65, 29, -14, -91, 30, 18, 81, 6, -40, -79, 20, 75, -19, 10, 72, 58, 34, 74, 53, -33, 66, -70, -83, 61, 53, -93, 8, 21, 42, 52, -2, -68, -1, 40, 28, -74, 79, -81, -74, 27, -27, 21, -74, 30, 47, -25, -20, -5, -13, -8, -17, -45, 32, 32, -67, 87, 59, 20, 79, -53, -53, 38, -40, -42, 49, 21, 56, 32, 56, 2, 77, -45, 42, 27, 79, -87, -72, 82, -19, -5, -10, -44, 57, -65, 14, -31, 27, 61, 29, -36, 52, 65, 25, 9, -11, -43, 58, -39, -7, 40, 68, 35, 17, 80, 34, 67, -44, 43, -63, 100, 19, -65, -2, -22, -30, 4, -13, 23, 32, 52, 66, -4, -22, -71, 29, 18, -18, 25, -38, -44, 7, 14, -72, -3, 47, -32, 78, -3, 25, 34, -38, 65, -52, -24, -49, -3, -79, -26, -38, 6, -81, 8, 45, -62, 63, 29, -39, 58, -39, -27, 24, -2, 70, 117, -64, 43, -20, 78, -76, 30, 22, 86, -9, -49, 65, 45, 73, 49, -12, 24, 24, 11, 36, -29, 38, 36, 73, -62, -66, 39, 59, -58, 15, 56, 64, 57, 41, 62, 37, -70, -22, -32, -70, 37, 83, -9, 38, 93, 36, -29, 1, 50, 39, -56, 15, 57, -22, 56, -36, -62, -38, -61, 74, 29, -48, 20, -84, -100, 33, 3, -44, -60, -76, -74, -75, 6, 8, -3, -68, 76, -44, -11, 51, 16, 3, 50, 3, 5, -68, -43, -16, -50, 59, -23, 64, 12, -106, 54, 69, 42, 8, -81, -16, -21, -70, 96, 61, 74, 108, 49, 53, 4, -28, -70, -77, -39, -53, -88, -75, 45, 29, 10, 81, 29, 58, -68, -31, 44, 43, 8, 57, -6, 13, 34, 27, -50, -62, -27, -43, 64, -41, -59, 35, 29, -63, 45, -82, 55, 0, -32, 79, -12, 45, -11, -37, 81, 66, 73, -64, 14, 38, -11, -60, 27, -68, -1, -16, -78, 74, -1, 54, -24, -40, 44, 23, 94, 17, -92, -19, -33, 59, -55, 2, -82, -76, -19, 92, -25, 24, -30, -59, 67, 43, -48, 59, 43, 64, -24, -1, 68, -17, 52, 35, -33, -98, 104, -59, 56, -62, 28, 86, -106, -92, 3, -61, 48, -77, -49, 0, 42, 42, 35, -3, -8, 38, -2, 5, 50, -26, 104, 75, -19, -75, -29, -80, 66, 50, -37, -17, 23, -16, 11, 72, -10, 20, 46, -64, 82, 49, 26, -60, -64, -67, -36, 25, 6, -104, -12, -87, -16, 40, -6, -15, 16, -41, -69, 29, -77, 71, 28, -55, 30, -61, 31, -38, -58, 53, -72, 37, 29, -18, -38, -38, 90, 24, 70, -32, 28, 51, 35, 65, -27, 54, -75, 62, -75, 58, 74, -28, 24, -3, 0, -9, -86, 36, -34, 67, 48, -40, -10, -6, -42, -58, -83, 48, 35, 80, -65, 38, -32, 63, 38, -15, -57, -11, 20, 37, -34, 56, -2, -7, 57, -20, 70, -56, 14, 54, -25, -18, -14, 18, 82, 30, 76, -84, 96, -79, 64, -36, -54, 34, -59, -96, 66, -36, -74, -57, -47, 24, -13, -48, 56, -7, -61, -21, -65, 63, 75, 86, 13, 9, -58, -32, 41, 64, 73, -15, 55, -70, -58, -60, 3, -23, 50, -17, 44, 29, -45, 45, 62, -64, -7, 11, 61, 34, -37, -3, -51, -51, 78, 13, -4, 39, 87, -22, -41, 8, -18, -74, 1, -66, 51, 10, -42, -40, -7, 66, -25, -52, 19, -86, 23, 1, 68, -40, 72, -46, -80, -22, 21, 52, 43, 78, -32, -85, -43, -48, 79, 59, 8, 83, -34, 31, 2, 48, 76, 50, -53, 53, 13, 9, 35, -28, 61, 62, 26, -64, 51, 67, 51, -9, 60, 51, 46, 68, -39, -62, 32, 65, 77, 77, 78, 42, -40, -13, 42, -3, -61, -62, 40, 10, -38, -14, 42, -48, 48, -67, 22, 51, 3, 27, -11, -55, 0, 18, 62, 7, -75, -61, -30, 60, 59, 40, 38, 53, -32, -28, -82, -5, 18, -2, -51, -43, -70, 77, -15, -17, -19, -52, 53, -77, 74, -10, -38, 27, 5, -64, 65, 2, 18, 10, 93, 32, -37, 56, 4, -73, -15, -47, -49, 14, -8, 43, 33, -73, 62, -50, -85, 34, -57, -1, -51, 4, -27, -82, 54, -22, 98, 82, 31, -12, -59, -67, -5, -53, 37, -55, 5, 23, 104, 44, 77, 2, -27, 45, 54, 22, 72, 100, -17, -35, -10, -35, -94, -24, 90, 28, -42, 79, -2, -46, 78, -70, 32, 35, 48, -13, -74, -30, -63, -58, 86, -42, 92, 75, -48, 68, 66, -56, -20, 58, 36, 68, -3, 66, -74, -19, -45, 5, -64, -44, -20, 30, -2, 39, 2, -57, 109, 61, 49, 46, 27, -23, 86, -13, -73, -68, 12, 80, 52, -5, 61, 87, -41, -20, 3, -59, -22, 41, 44, 28, -27, 15, -2, 53, 110, -7, -25, 11, -56, 24, -26, 8, 80, -24, -82, -47, -33, 82, 71, -44, 60, 36, 42, 56, 40, -70, -62, -58, -98, -17, -59, 18, -69, -77, -90, 28, -10, 44, 64, -48, -36, -82, -101, -24, -21, -40, 72, -10, 16, -12, -23, 32, 81, -43, 66, -58, -32, 7, 60, -9, -33, 55, -80, 51, -73, -47, 41, -30, -44, 65, -86, -46, -68, 27, -80, -54, 47, -44, 37, -58, 44, 6, 25, -72, -34, -35, 36, -22, 64, 38, 38, -45, 96, -78, 14, 3, 25, 51, -45, -75, 29, 81, -53, -60, -16, -41, 66, -16, -4, 68, 52, 1, 61, -35, -48, 83, -35, 67, -55, -16, -17, -62, -61, -27, -101, -48, -79, -12, -72, 12, -22, -34, 44, -15, 75, -37, 21, 13, -15, 12, -34, 35, 52, -57, -40, 24, 50, 11, -1, 48, -46, 74, 68, -68, -78, -45, 13, -5, -70, 54, 5, -50, -51, 54, 0, 59, 9, -25, -55, -2, 66, -51, 87, -35, 75, 71, -8, -102, -53, -61, 78, 91, 21, -45, -24, 8, -58, -77, 43, -17, 28, -11, 15, 27, 89, 62, 66, -56, 48, -6, -10, -58, -18, -10, 20, 44, -13, 110, 6, 23, 23, 22, 10, 10, -82, 80, 45, -8, 70, -75, 21, 76, 90, 98, 11, -20, -72, -56, -17, 27, 4, -59, 58, 17, 42, 2, -60, 50, 83, -86, 32, 72, -62, 62, 70, 68, 2, 35, -40, -50, 65, -41, -17, 30, -35, 10, 24, 82, -95, 42, 85, 53, -31, 71, 84, 42, 29, -30, -15, 15, -17, 38, -83, 13, 34, -44, -72, 50, 1, -41, 17, 34, 26, 30, -26, -15, -19, -72, -16, -13, -49, -41, 30, -30, -20, -27, 89, 25, -2, -23, 31, -49, 32, 72, -71, 18, 31, -81, -7, 50, 74, 79, 77, -58, 1, -75, 60, -20, 7, -93, -7, 39, 28, 63, -39, -20, -70, -7, -39, 25, 35, 71, -79, -72, -100, -40, 6, 4, 14, -13, -1, -116, -86, 7, -54, -15, 71, -21, -36, 32, 7, 59, 32, -93, 49, -23, 46, -21, -52, 30, -120, 80, 84, -44, -34, 24, 53, -31, 18, -28, -73, 8, 71, -17, -69, -6, 34, 21, 10, -50, 59, -74, -64, 11, 27, -68, 73, -24, -57, -28, 17, 92, 42, -90, -3, 43, 67, -17, 63, -13, -73, 65, 74, -28, 35, -3, -46, -13, 101, -6, 34, 81, 54, 47, -45, -21, -10, -88, 40, -15, -76, -59, -14, -9, 24, 17, 65, -13, -23, -46, -91, 33, -14, 38, -78, 86, 51, -89, 16, -81, 7, -80, 21, -6, 15, -30, -43, -40, -71, 43, -20, -52, -1, 38, -63, 43, 10, -59, -33, 36, 65, 70, 10, -17, -37, 18, -60, 93, -57, 48, -21, -4, -51, 57, 33, -19, -7, -64, 18, -13, -65, -65, 38, -64, -74, -52, 83, -87, -2, 79, -92, -79, 11, -5, -21, 38, 23, 27, -37, 21, -82, 86, 6, 24, 44, 8, -54, 15, -76, 9, -57, 87, -23, -44, -108, 11, -44, -94, 79, 27, 79, -9, -56, 60, 57, -16, 10, -43, 80, -59, 16, 49, 24, -53, -48, -16, -12, 2, 81, 7, 52, -23, -75, -76, 25, -57, -7, -22, 51, 66, -54, 36, 0, 38, -32, -36, -46, 70, 24, 85, -63, -64, 30, 57, -2, -93, -61, 76, 12, 91, 1, 79, 44, -64, -53, 19, -10, 41, 10, 80, -1, 56, 78, -2, 66, -50, 53, 38, -12, 23, 9, -33, -69, 3, -29, 26, 38, -18, -45, 60, 52, 51, -27, 37, 37, 65, 27, -27, 86, 20, 67, -70, 76, -14, 26, 51, 69, 40, 1, 66, 41, -61, -6, -94, 54, -50, -66, -56, -60, 39, 35, -76, 71, 52, -45, 5, -5, -21, -64, 74, -62, -19, -68, -21, -65, -111, -14, -54, 45, 13, -38, 17, 55, 28, -28, -45, -18, 0, 33, 80, -66, 9, 18, -29, -17, -83, -34, -14, 44, 46, -31, 17, -2, 0, -8, -81, 34, 24, 38, 33, -15, 43, -41, -34, -6, 14, -69, 7, 64, 25, -78, -24, 89, -67, 26, 87, 72, -62, -63, -35, 57, 31, -26, -18, 66, 83, -88, -73, -62, 59, 68, -8, 65, 40, 38, 63, -4, -71, 46, -76, 18, 69, -88, 69, -28, -6, -26, 43, -53, -34, -28, 24, 34, 25, -38, 28, -2, -36, -94, -76, 10, -87, 75, -54, -63, 54, 100, 34, -45, -65, -45, -24, -72, 27, -84, -65, -22, 37, -49, 58, 89, 41, 12, -19, 75, -10, 33, -49, -43, -20, -26, 61, -39, 17, -6, -47, -27, -10, 3, 59, 56, -61, -33, 44, 50, 75, -57, -72, -38, 51, 11, -80, 108, 49, -75, 79, -12, -67, 54, 74, -12, 44, 25, -47, -32, -3, -83, -73, -25, -60, 49, -39, -41, 6, -26, -62, 23, 84, -76, 27, 34, -4, 51, -70, 65, -68, -53, -21, 83, 28, 70, 0, -46, 27, 59, -71, 16, -63, -77, -75, 65, 55, -23, -10, 39, -86, -11, -24, -67, -33, 81, 29, -40, 1, 8, 38, -52, 27, -8, 83, 124, -34, -22, 16, -69, -1, -20, -31, -28, -29, -75, -75, -12, 83, -41, 18, 63, -29, -18, 37, -56, -88, 65, 40, 26, -75, 68, 13, -3, 65, 32, 66, -6, 62, 71, -48, 69, -64, 83, 27, -62, 93, 84, 100, 43, -62, 79, -41, 24, 76, 78, -62, -68, 49, -75, 1, -25, -60, -4, -60, -56, 5, -22, -13, 33, -25, -27, -3, -73, 21, 76, 46, -49, 15, 52, 82, 35, 10, 85, 66, -66, 32, -23, 55, -76, 9, -52, 70, 19, -78, 83, -53, -74, 37, 20, 78, 40, 64, -41, 77, 74, 10, 61, 62, 13, 100, 29, -5, -38, 82, 21, 47, -1, -14, -60, 95, -8, -62, -21, 72, -27, -27, 0, 61, 40, -48, -46, 50, -73, 4, 24, 14, 4, 91, 50, -53, -36, -33, -41, 66, 6, -51, 78, 79, -10, 26, -43, 61, 30, 10, 70, 64, 67, 70, -20, 36, -27, 47, 53, 2, 63, 72, 95, -31, -45, -6, -28, 54, -35, -58, -65, 74, 86, 11, -14, -38, -43, -32, 71, 74, 18, -73, -64, -79, 56, 49, -66, 19, -57, 18, -42, 81, -7, 43, -20, 50, 55, -16, -34, 60, 88, -70, 62, 18, -42, 34, -88, -48, 27, 51, 13, -46, -44, 84, -67, -62, -14, 87, -4, -37, -43, -10, -17, 61, 57, -72, 31, -70, 36, 38, 83, -63, -100, 11, 53, -60, -47, -39, -53, 46, -52, -56, -19, 61, -13, 7, -81, -86, 30, 57, -67, -13, -67, -82, 71, -40, -49, -21, -75, -71, -61, -21, -9, -53, -23, -24, -53, 2, -107, 30, -2, 31, -57, 50, 95, 58, 61, -8, 38, -17, -53, -53, 1, 11, -100, -89, 13, 36, -3, -61, 70, -31, 61, -63, 1, -74, -33, -60, -90, 20, 49, 55, -59, 2, -27, 24, 86, -41, -27, 7, 68, 65, 91, 33, -45, 52, -26, 6, -42, 77, -64, 68, -85, -54, -2, -29, 60, 77, -89, 76, -52, 71, -34, 51, -12, -3, 11, -107, -14, 55, 10, 63, -12, -36, -66, -39, -36, -78, -89, -83, -33, 77, -95, -73, -39, -2, 60, 3, 13, -13, -34, 90, 15, 19, -15, 20, 11, -52, 68, -16, -11, 47, 72, -64, -71, 97, 45, -53, -44, 25, 21, -71, 110, 19, -30, 58, -50, -15, 8, 92, -53, 18, -9, -24, 63, 22, -2, 34, -34, -81, 51, -5, 54, -102, 40, 51, 39, 45, -51, -53, -24, 82, 62, -34, -66, 54, -80, -48, 53, -87, 53, 0, -44, -15, -62, -26, 39, 9, 5, 66, -90, -30, 6, -66, -89, -71, -19, 39, 32, 18, -67, 14, -46, 21, -18, 85, 74, 51, 21, -37, 43, -43, 86, -53, 43, -29, 36, 52, -48, 29, 54, -67, -67, -20, -32, 22, 51, -70, -57, 26, -66, 33, -36, 32, -5, 41, -47, -8, -46, -28, 26, 23, -75, 85, -16, -63, 87, -26, 39, -79, -68, 9, 46, 65, -26, 36, -3, 18, 36, -65, 18, -62, 37, -38, -50, -37, -33, -42, 35, 47, -1, 37, -62, 44, -58, -68, -50, -19, 73, 3, -22, 50, -71, -7, 25, -50, -33, -7, 16, 4, 66, -79, -70, 29, 73, -35, -51, 6, 50, 23, 47, -19, -77, 37, 14, -14, 79, 60, 18, -37, -40, 34, -19, -6, -32, -43, -10, 56, -46, -57, -16, -1, -100, -39, -4, 68, -7, -74, -60, 26, 79, -46, 7, -73, 38, 59, -28, 67, -71, -43, 43, -43, -69, 61, -100, -7, 68, 28, 35, 38, -36, -70, -23, -49, -9, 44, 3, -53, -61, -65, -93, 64, -30, 62, 40, -23, -109, -68, 15, -75, 8, 35, -45, -25, -58, -27, 53, -7, 25, 89, -16, -57, 64, 89, -36, -19, 17, -3, -89, 77, -60, -76, -47, 59, -19, -70, -39, -56, 17, 70, 25, -75, 76, -69, 2, 36, -46, 67, -79, -85, -40, -28, 18, -81, -33, -24, -83, -69, 1, -60, -100, 68, 42, -9, -18, 35, -13, 60, -88, -62, -52, 25, 15, 0, 10, -70, 64, -6, -43, -24, -67, 95, 62, -43, -31, 51, -36, -54, 43, -30, 5, -26, 57, 20, -27, 20, -56, -50, -78, 36, -43, -101, -105, 47, 23, -38, -81, -29, -68, 0, -63, -52, -55, 0, -9, -16, -26, 55, 65, -29, -77, -13, 47, -59, 50, -15, -95, -21, -49, -33, -96, 41, 21, -30, -83, 41, 25, 27, -76, -55, 19, 59, 42, 21, -11, -37, -80, -19, -110, 45, -73, -21, 34, 47, -77, 15, -31, 54, -79, -79, 20, 8, 38, -34, 62, -66, -17, -30, 38, -61, -95, -69, 8, 12, 59, -17, -27, -81, 31, 20, 11, -3, -63, 92, -26, 15, -18, -28, -95, 67, -25, -11, 4, -48, -44, -68, -69, 4, 46, -27, -9, 16, -16, -80, -78, 26, -71, -12, 34, -11, -48, 68, 71, -51, 80, 14, -38, 67, 53, 64, 1, -13, 37, 47, -22, -59, 72, -73, 76, 49, 47, -36, -43, -23, 40, 5, -75, 10, -14, -4, -50, 39, -68, -7, -98, -49, -31, -24, -45, -33, -47, -19, 6, 45, -48, 48, -84, -15, 41, 4, -29, -77, 29, -3, -78, -20, -83, 51, -52, 33, -55, -59, -112, -99, 0, -32, -44, 54, -71, 83, 81, 49, -6, 9, 4, -61, 59, -2, -73, 38, -18, -20, -57, -19, 60, 46, 93, 10, -9, -69, -10, 52, 35, -75, 9, 95, 68, 53, 27, 61, -41, 74, 65, 38, -44, 58, 79, 44, 35, -1, 42, 86, -43, 1, 74, 59, -11, 41, 8, -22, 21, 25, -18, 59, 44, 71, -14, 29, 20, -68, 26, 20, -36, -35, -69, -6, 4, -96, -21, -25, 77, 57, -7, -17, 43, 3, -42, -39, -5, 0, 14, 83, 87, -5, -7, -52, 18, 45, 40, 26, 72, 17, -14, -85, -61, 30, 54, 23, 4, 65, -59, -8, -19, 14, -58, 0, -73, -32, 9, 45, 4, -18, 16, -83, 47, 37, -29, 42, 28, 33, -68, 54, 6, 69, -45, -74, -16, 44, -32, -76, 51, -74, 32, 107, 73, 59, 13, 36, 7, -66, 13, -39, 75, -35, 35, -74, -61, 75, -48, 6, -24, -24, -61, 10, -63, 27, -96, -12, 50, 42, -64, -47, -1, 4, 44, -72, -90, -65, -13, -19, 40, -65, 18, 24, -35, -48, 107, -38, -12, 49, -19, -70, -86, 13, -54, 6, -17, 54, -34, -5, -60, -75, -17, -82, -37, -21, -35, -55, -25, 49, 68, 57, -75, 33, 27, 20, -99, 13, 51, 10, -73, 50, -53, -82, 80, -4, 23, -65, 74, -1, -20, -2, 12, 44, -72, -67, 48, -20, -30, 61, -56, 35, -72, -71, 51, -84, -21, -83, -39, 80, 74, -43, -72, 46, 69, -24, 62, -52, 87, 46, 8, 11, 4, -41, 88, -13, -42, 55, -41, -35, -67, -26, 81, 16, 85, -77, 42, -39, -88, 63, -17, -81, 84, -40, 62, 73, -48, -10, -76, 81, -66, -39, -73, -5, -2, -25, 77, -113, 59, -66, -40, 3, -40, -22, 23, -62, -7, 34, 62, -17, 47, -24, 40, -68, -78, 63, 39, -10, -88, -74, -18, -72, 30, 33, -26, 1, -26, 12, -49, -66, -5, 40, 69, -26, 25, 18, -75, 51, -50, 9, 82, -59, 11, -21, -76, -26, -14, 57, -95, 20, -22, 56, 1, 78, 20, 4, -18, 23, -39, 51, -12, 57, 43, -21, 76, 47, 68, -63, 7, -56, -28, -63, 80, -60, 98, -59, -24, -80, 11, 36, 12, 45, 68, -55, -25, -1, -2, -93, 31, 53, 33, -76, -40, -53, -72, 82, -62, -65, -5, 63, 4, -68, 70, -68, 59, 64, 20, 6, 29, 58, 13, 76, 43, -7, 65, -3, -49, 41, 71, 20, 11, 67, 89, -18, 54, -36, 31, 0, -64, -57, 70, 22, -14, 21, -53, -71, -8, -21, -44, 64, -39, -40, -49, -1, 6, 4, -9, -59, -88, 62, -7, -32, 38, -56, 46, -80, -4, -39, -29, -80, -34, -52, 79, -59, -6, -98, -25, -38, 60, -57, 56, -74, -34, -53, 36, -16, -64, -84, 87, -54, 72, 30, 61, -65, 46, 24, -25, -19, 14, 40, -51, 34, 99, -101, 49, 28, 51, 28, 49, -11, -48, 34, -23, 75, 49, -36, 26, -30, -30, -7, 34, -48, 47, 43, -19, -29, -34, -28, 32, -56, -66, 59, -21, -28, -16, 21, -42, -63, 18, -29, -66, -27, 59, 23, 93, -66, 78, 55, 71, -54, 12, -72, -26, -32, -116, -67, -26, 22, 56, 18, 60, -38, -32, 67, 70, 25, -68, -76, 35, 14, 52, -62, -68, 44, -46, -9, 13, -4, 92, -68, 85, -2, -40, 54, 31, -41, -73, 58, -19, 5, -21, 43, 39, 39, 24, -41, 78, 37, -96, 21, -49, 14, -71, -3, 8, -94, 50, 47, 49, -72, 25, -39, -33, 6, 23, 29, 41, -92, -17, -81, -12, -71, -8, -105, -45, -2, 57, -33, 79, -46, 74, 31, -44, -3, 28, -26, -42, -108, -41, 50, 9, -12, -66, -60, 5, -20, -60, 35, -17, 56, -64, 49, -47, 5, -74, -66, -68, -29, 45, 73, 33, -84, 66, 76, 12, -99, 27, -97, 53, -21, 3, 48, 19, -4, 76, 35, 57, 17, -16, 65, -37, 4, 40, 77, -26, 18, 55, 34, -1, -70, -25, 73, -43, -96, -13, 63, 57, 52, -87, -80, -99, -74, 49, -67, -9, -25, 25, -55, -39, -66, 50, 10, 64, 34, -12, -74, 7, -24, 51, 27, -28, 15, 80, 78, -22, -49, 21, 23, -2, -6, -63, -99, 18, -22, 60, 54, 35, 29, 10, -79, 60, 47, 6, -46, -58, 70, 96, -53, 74, 1, 8, -15, -94, 39, -35, -43, 56, -61, -47, -5, 89, 10, -55, -48, -48, 33, 31, -37, -99, -73, -2, 82, 0, -50, 76, -69, -21, -35, 41, 67, 8, -56, 14, 46, 87, 62, -65, 45, -64, 25, -7, -81, 30, -71, -61, -58, 11, -26, 36, -21, 13, -71, 84, 32, -6, -49, -46, 80, -4, -27, -83, 16, -66, 40, -61, 101, -73, -59, 26, -17, -27, -42, -3, 53, -32, -36, 14, 66, 57, 68, 76, 75, 52, 68, 5, -38, 46, -13, -73, -49, -90, 18, -44, 69, -96, -59, -33, 42, 17, 58, 3, -51, -53, 43, 46, -74, 49, -39, 34, -25, 42, 80, -62, -71, 39, 5, 54, -9, 82, 10, -59, -36, -96, -47, -1, 30, -2, -38, 11, -35, -91, -84, -44, -76, 21, 70, -65, 22, 16, -15, 67, -43, 67, -18, -42, -37, -34, 37, -48, 26, 107, -41, -81, -49, -81, 38, -73, 77, -19, -30, 30, 39, 19, -54, -9, -82, -48, -2, -112, -20, -86, -19, -65, 12, -2, -100, -74, -79, -99, -12, -91, 5, 52, -58, 27, 57, 62, -63, 62, -16, 91, 22, -37, 36, -43, -76, 86, -70, -36, 16, -43, -6, 31, -61, -83, 61, -59, -27, 10, 59, 59, -15, 59, -56, 32, 15, -50, 62, 62, 20, -2, -13, 21, 36, -63, -101, 23, 50, 55, 12, -13, -17, 6, 41, 11, 16, 56, 0, -91, 64, 36, -14, 9, -61, 78, -21, 80, -62, 67, 48, -30, 57, -67, -59, -28, -64, -99, -16, -59, -98, -25, 10, -74, 27, 19, 55, 30, -62, 38, -78, 10, 56, 42, 51, -54, -68, -44, -19, -87, 9, -3, -45, 37, -42, 14, 31, 46, 41, -78, 101, -37, 96, -30, -83, -33, -81, 24, 65, -29, 5, 69, -52, -8, 93, -46, -9, -7, 56, 16, 41, -80, -60, -9, -46, -17, 92, -85, 34, 6, 50, -61, 63, -39, 53, -23, 52, -30, 37, -75, -100, 59, 41, 65, -50, -26, 6, -50, 107, -48, -31, -36, 79, -30, 35, 64, 1, 60, -37, 25, 65, 44, 12, 54, -65, 57, 56, -75, -74, 57, -5, -78, 46, 6, -22, 4, -8, 9, 19, -50, 53, 7, 48, -30, 48, 79, 66, -24, -74, 5, -37, -41, 12, -47, 73, -16, 1, 82, 42, 93, 50, 42, -35, 70, 45, -85, -69, -62, -2, 11, 53, -59, -86, -14, -22, 78, 49, 64, 22, -65, 83, -53, 36, -50, -58, -31, -41, -5, -13, -27, 1, -43, -26, -45, -4, 10, 31, 23, -11, -48, -24, 0, 65, -38, 51, 44, 15, -23, 56, -103, 6, 27, -40, -73, 27, -70, -35, 79, -36, 26, 27, 32, 79, -53, 75, 75, 34, -61, 44, 45, 89, -66, -62, -33, -68, -24, 42, -62, 71, 74, 47, -31, 51, -66, -29, -40, -52, 5, 55, 71, -8, 88, -2, -80, -56, 42, 15, 90, -55, -9, 27, 71, -5, -64, 2, -52, 91, -38, 94, 57, -2, 34, 59, 33, -63, -54, 0, -7, -34, -61, 41, 7, -16, 0, 68, -75, 33, 21, -25, 35, 67, 4, -15, -10, 88, -19, -53, 76, 111, -20, -47, 58, -35, -3, 34, 24, -55, -29, -51, 25, 55, -42, -25, 92, -89, 68, 64, -22, -10, -46, -66, 74, 52, -20, 49, -61, -10, 32, -4, -10, -35, 56, 14, 63, -66, -33, -83, -110, -14, -28, 13, 57, 35, -55, 31, -18, 6, 1, -1, -52, 82, -78, 69, -71, 51, -77, -4, 93, -28, 37, -87, 30, 46, -12, 58, 36, -43, 43, 65, 68, -56, -84, -67, 11, -13, 79, 45, -14, -4, -29, -10, -43, -87, -9, 53, -19, 88, -25, -68, -72, -19, -35, -12, -32, 15, -35, -74, 48, -58, -22, -50, -37, 29, -41, -40, 9, 67, 50, -38, -35, 80, -48, -76, 77, 69, 64, 33, 43, 8, -53, -46, 74, -24, 33, 70, 60, 65, 11, 17, 75, 60, 19, 50, 8, -63, -27, -48, 16, 9, -90, 26, 66, -27, 1, -37, 23, 16, -62, -73, 36, -40, -61, 46, 21, -7, 11, 72, -37, 14, 4, 52, 2, 4, -29, 41, 26, 23, 55, -66, -67, -28, 19, 70, 49, 25, -27, 32, 45, -11, -27, -74, -8, 41, 36, 44, 6, 62, 59, -62, -94, 27, 11, 69, 45, 89, 74, 27, -4, 63, -11, -46, -9, 30, 36, 81, -39, -83, -64, -85, -35, 70, 11, 1, 41, 40, -77, 4, 46, 36, -74, -43, -56, -39, 78, 49, -21, -65, 89, 57, -42, -60, -70, 24, -3, -80, 37, 83, -54, -69, 85, -9, 21, 65, 3, -2, 93, -43, -32, 86, -19, -53, -12, 47, -65, 30, 50, -54, -86, -46, -32, 49, 104, -50, -48, -46, 31, -12, -33, -79, 26, -30, 47, -10, -74, -24, -55, 73, -44, 46, -95, -21, 47, 62, 82, 61, 3, 60, 36, -63, 50, 89, 61, -19, -23, 10, -11, -87, -14, 103, 30, -16, 28, 46, -76, -44, 7, 21, 4, -61, -73, -77, -38, 17, 89, -74, -1, -32, -92, 22, 10, -19, -25, 85, 1, -68, 20, -26, -67, -3, -67, -13, -71, 37, 12, 59, 21, 0, 84, -79, 43, 75, 7, -48, -3, 41, -25, -47, -62, -31, -26, 78, 7, -10, -80, 19, -6, 44, -27, 23, -14, -2, -57, 36, 18, -72, -57, -47, -58, -9, 20, -32, 48, 14, -87, -47, -31, -70, 24, 33, 3, -9, 20, -19, 30, 32, -89, -88, -33, 65, -68, -42, -55, -99, 5, -72, -31, 34, 44, 23, 20, -103, -46, 26, 41, -6, -23, -31, -20, 34, -82, 15, 39, -97, -12, -75, 66, 19, -107, 25, 28, -52, -22, -1, 30, -64, 9, 55, 17, -81, -45, 78, -25, -18, 20, -13, -32, 51, 54, 41, -47, 53, -23, 20, 32, 43, -7, -1, 52, -11, 41, 19, 30, -67, 52, 47, -43, -71, 33, -12, -69, 18, -75, -10, -74, -94, -7, 33, -74, 62, 48, -5, -5, -49, 70, -35, -31, -48, -32, -70, -56, 67, 25, -60, 74, -41, 27, 47, -87, 109, -2, -74, -72, -50, 100, 51, 24, 39, -32, -51, -17, -41, -24, -49, 18, -88, -42, 62, -58, 37, -16, 79, -48, -4, -67, -56, -64, -35, 48, -2, -21, 88, 11, 29, 13, -26, 30, 4, 51, -49, -48, 92, -39, 84, -65, 44, 37, -27, -21, -13, -7, -8, 17, 45, -34, -17, -46, -22, 28, 50, 88, 72, -13, 97, 70, 20, -52, 72, -28, -22, 67, 44, -53, -36, -70, -22, 50, 53, 54, -2, 50, 98, 71, 53, 42, 53, -58, -2, -63, 24, -6, 77, 29, -6, 62, 97, -112, -66, -85, -35, -48, -77, 37, -41, 8, 56, -88, 2, -30, -87, -20, 47, -93, 28, -42, 45, -32, -68, 12, -65, -73, 6, -13, 4, -67, 8, 14, 31, -110, -37, 55, -26, 10, 90, -80, -2, -53, 13, -39, 25, -96, -11, -5, -15, -68, 32, 28, -58, -15, -80, 70, 18, 48, -30, 14, -22, -13, 59, -102, -11, -51, -24, -18, 12, -62, -7, 11, 76, 27, 3, -20, 11, 42, 10, 85, 0, -95, -49, -43, -4, 59, -112, 28, -48, 33, -2, -14, 12, -46, 48, -80, 77, -46, 38, 62, -83, 68, -37, 45, -22, 81, -41, 104, 45, -18, -48, 9, 11, 2, 64, 55, -73, -71, -5, 53, -6, 29, -39, -45, 54, 34, 52, -33, 38, -1, 26, 39, -68, -30, -74, -76, -25, -50, 75, -5, 67, 44, -59, -26, -29, 59, 76, -33, 6, -6, 11, -41, 32, -7, 16, 34, 20, 32, -18, 28, 37, 40, 21, 10, 82, 37, 77, 28, -5, 1, -57, -37, 72, -67, 26, -45, 20, 62, 35, 21, 3, -19, -64, -77, -36, 16, 12, 9, 23, -4, 14, -25, 87, 3, 79, -44, 15, 103, -18, 3, 97, 34, 73, 30, 63, -29, -3, -48, -13, 16, -30, -28, -33, -16, -6, 87, -57, 94, -43, -47, 3, -15, 14, 26, 61, -79, 10, 60, 18, -71, 57, -59, -35, 64, 56, 36, -17, 3, -2, -104, -29, -47, 70, -20, 80, 5, -10, 30, -33, 32, 63, -6, 29, 55, -64, 66, -69, -90, 41, -56, -5, -54, -86, -42, 40, 23, -49, -47, -31, 44, 60, 78, 14, 44, 25, -70, 65, -37, -28, 86, -43, 39, -46, 10, 49, 32, 39, -49, 58, 49, -41, 42, 6, 43, 4, 92, 55, 58, -33, -28, 4, 76, 27, 63, -89, 91, 37, 39, 72, 0, -87, -71, 61, 42, -1, 0, 45, 71, -71, -41, -52, -79, -12, 20, -51, 26, 64, 2, -26, -5, -14, 8, 3, 12, 81, 64, -105, 41, -82, 12, -40, -12, -7, 61, 90, -40, 76, -2, 47, 29, 76, 68, 2, 57, -9, 39, -41, 5, -53, -21, -91, -53, -47, -40, 52, 60, 41, 36, 81, -65, -35, -2, -57, -49, 52, 31, -61, -23, 11, -19, 18, -2, -66, -16, 14, -54, 5, 15, 10, -45, -30, 60, -76, -31, 45, -56, -21, 25, -50, -1, 10, -14, -64, -47, 91, -64, 40, 55, -3, -2, -3, 74, 83, 78, 45, 15, 2, -60, -49, 89, -64, -55, 3, -34, 89, -42, -35, 115, 83, 49, 40, -23, 102, -32, -41, -57, -31, 78, -51, 81, 35, -73, 62, 60, 41, 40, 32, 87, 74, 80, 28, 30, 53, -2, -44, 78, 75, 70, 35, 81, -81, 63, -10, 19, 22, 40, 6, -35, 47, -43, 28, -50, 2, -26, -69, -96, -17, 3, 45, -47, 19, -54, -4, -72, 36, -33, -78, 37, -31, 59, 60, -83, -47, -48, 64, -49, 32, -82, -10, -56, -82, -68, 34, 67, 84, 46, -60, 21, 41, -73, 71, -39, -37, -65, -65, -70, 10, 21, 27, -84, -11, 58, -53, -94, -83, -6, -58, 5, -57, -47, 73, 19, -65, -82, -53, 9, -17, -60, -77, 71, -76, -27, -4, 60, 63, 61, -14, -100, -14, 28, -64, -47, 31, 4, -49, 79, -79, 42, 7, -102, 49, 27, -18, -13, 48, -57, -59, 62, 54, -12, 7, 7, 12, -66, -36, -12, 23, 76, -45, -8, 7, -64, 81, 11, 5, 28, 49, -45, 37, 61, 29, 15, 19, 18, -25, -41, -46, -82, 55, 17, -31, -7, 43, -40, 15, -26, 67, -21, 8, 52, -75, -19, -14, -51, -85, -100, -15, -68, -61, -77, -81, 78, -19, 13, 49, -79, -49, 10, -57, 62, -63, -9, -6, -38, -75, -57, -75, 34, -73, 79, -12, -23, -40, -14, -20, -27, -11, -82, -39, -26, -68, 32, 52, -3, -28, -73, -9, 43, -40, -77, 27, 8, -70, -21, -16, 7, 22, -42, 71, -80, -13, -83, -1, -36, -56, -49, 14, -56, 1, 4, 7, 34, 0, 40, -65, 55, 32, 38, 11, 32, -13, 26, 74, -36, 20, 49, -34, 88, -68, 39, 67, -89, -25, -72, -73, -82, 81, -70, -5, 4, -33, -14, -42, -30, 22, 18, 30, 31, 21, 35, 63, -8, 78, 12, -11, 27, -48, 39, -1, -87, 42, 72, 61, -11, -52, -35, 3, -2, 93, 47, 44, -36, -89, -68, -6, 27, -83, -89, -106, 44, -23, 48, 4, 38, 37, -46, 7, -46, 64, 48, 29, 71, -49, -99, -3, -42, 44, 35, 46, -50, 28, -85, 68, -56, -53, -51, -111, -6, -12, -41, -81, -26, -46, -109, 76, -21, 7, -59, 54, -113, 37, 20, -62, -46, 66, 14, -51, -30, -6, 1, 36, -14, 38, -94, -63, 2, 47, -24, 2, -3, -6, -72, 11, 16, 19, -24, 46, 25, 91, -7, -20, -112, 62, -60, 49, 60, -60, 23, -47, -86, -17, -7, -37, 36, 53, -87, -56, 55, 5, -71, -55, -19, 46, 7, -80, 30, -65, 1, 53, 44, 68, -32, 2, 39, 23, -32, 20, 13, -102, 49, 15, 54, -77, -84, -27, -12, -70, 17, 11, -53, 47, 42, 53, -21, -29, -38, -31, -108, -29, -56, -40, 5, 2, 35, -66, -52, 27, -27, -83, -95, -14, 33, -35, -23, -79, -56, -37, -19, -31, -37, -20, -84, -78, 76, 35, 67, 14, 79, 24, 29, -33, -77, -41, -40, 27, 49, 59, -81, -54, -14, 93, 48, 72, -40, 68, -8, 90, 52, 20, -3, 9, 6, -25, 23, 67, 8, -11, -1, -56, 52, -82, -27, -9, 23, 4, 87, -54, -75, -47, 50, -23, 42, 29, 45, -8, -60, -28, 47, -30, -51, 56, 2, 28, -7, -18, 38, 55, -21, -67, 7, 23, 31, 10, 40, 79, -55, 32, -8, 93, 0, 42, -78, 46, 43, 21, 67, 1, 22, 34, 24, -77, 16, 52, 14, 49, -8, 23, -51, 33, 24, -45, -4, 3, 57, 9, 55, 41, 51, 2, 0, -5, 23, -12, -38, 55, -29, 46, -32, 26, 49, 46, 6, 57, -46, -62, -20, 11, 54, -62, -8, -55, 40, 28, -108, 38, 37, -57, -84, 7, 34, -63, 5, -58, -8, -60, -71, -70, -48, -31, -36, -57, -12, 4, -26, -76, 36, 86, -5, -74, 72, 1, -45, -35, -37, -5, -103, 5, 15, -36, -60, -26, -41, 4, -13, 74, 12, -49, -47, 30, -67, -52, 68, 59, 51, 36, 67, -81, -11, 17, 4, -5, -92, 17, -48, -14, 46, -64, -101, -41, 63, 58, -41, 67, -85, -38, 68, -92, 3, 14, -74, 39, 73, -7, -67, -44, 51, -53, 54, -38, -48, 59, -11, -76, -16, 78, 37, 57, -11, 35, -43, -32, 33, -62, 70, -66, 16, -25, 60, 37, -39, -45, 11, 37, -30, -60, 23, -74, -20, 24, -29, 1, -56, 15, 51, -30, 27, 9, -30, -16, 19, 29, 13, -34, -61, 63, -71, -84, 61, -83, 5, 33, 13, -46, 77, -46, 39, 31, -5, 63, -87, 19, 86, -53, 13, 2, -35, 7, 53, 5, -9, 22, -44, 34, 17, -41, 56, -42, -82, 13, -46, -42, 78, 48, 43, 85, 21, 12, -24, -38, -16, 77, 56, -9, -34, -23, 62, 15, 81, -90, 78, -21, -43, 46, -10, -30, -58, 41, 11, 60, 73, -50, 33, -38, 5, 59, -18, -60, -19, 44, 36, 80, 46, -65, 37, -73, 23, -2, -36, 67, 25, 5, -52, -19, -77, 46, 36, -42, -39, 58, -57, 11, 61, -76, 26, -65, 79, -41, 62, 75, -61, 80, 87, 41, -46, -68, -48, 6, -67, -77, 49, 87, 44, 67, 19, -33, -41, -85, 47, -71, 57, 30, -49, 59, -39, 0, -13, 17, -50, 59, -55, 74, 31, 41, -11, 64, -19, -9, -38, 55, 61, 67, 4, 75, 19, 60, -97, -8, -21, -92, 26, 19, 42, -62, -25, 66, -27, -56, -27, -28, 28, -42, 33, -61, -16, 62, -76, -33, 10, 49, 71, 44, -74, 22, 16, -1, 40, -22, -80, 66, -54, -38, -76, -23, -101, 36, -44, 68, 33, -22, 53, -69, -17, 4, 21, 19, 16, 8, 13, 25, -98, -88, 6, 42, -35, -20, -26, -86, -51, 23, 10, -68, 82, 42, -14, -31, 45, 44, 19, -30, 0, -53, 12, 78, 34, -27, -88, -61, -62, 25, 35, -59, -67, 79, 59, 19, 55, 9, 56, 17, 65, 9, 58, 10, 106, 55, 18, -68, -14, 18, -68, -23, 16, -8, -20, -11, 41, 69, -29, 86, -68, -68, -35, -8, -37, 79, 19, -64, -21, -44, 72, 1, 60, 30, -47, 41, -59, 59, -16, -36, -42, 40, 23, -66, 48, 64, -38, 21, 7, 15, -4, -1, 62, 50, 23, -76, -25, 14, -27, -3, 30, 70, -40, -5, 3, 3, 29, -43, -33, 11, -71, 53, 63, -15, -66, 27, 52, 62, -67, -8, -13, 25, -77, -31, -7, 84, -86, -11, -35, 0, -48, 5, -19, -54, 63, -66, 62, -66, 75, 59, 36, -38, 70, 60, 16, 62, 34, -81, -5, -39, -32, -11, -62, 35, -12, -53, -42, -45, 65, 56, -16, 50, -40, -30, -14, 44, -10, -31, -63, -22, -4, 23, 20, 20, 52, 3, -46, -64, -28, 47, -34, 0, -81, 34, 72, -58, -70, -61, 56, -27, 76, -22, 37, 12, 3, -13, 15, 21, 66, -78, 58, 71, 40, -68, -20, 91, -51, -34, 44, 26, 40, 36, 36, -36, 36, 75, -74, 74, -38, -31, -8, 40, -60, 83, -7, -15, 11, 27, -72, 63, -79, -60, 52, 69, -51, -14, 63, -86, -79, 9, 71, -28, -8, 21, 53, -11, 71, -52, -25, 57, 27, -5, -77, 50, -74, 27, -18, 9, 32, -2, 56, -31, -83, -30, -59, -79, 53, 22, 46, 14, -49, 25, 93, 14, -94, -61, 34, -88, -6, 70, 29, -96, 45, -40, -105, -12, 54, 37, 74, -5, 52, -44, 81, -70, 3, 
